1023 64
41f69ee711960cd5ac764721d7b3733b 0.0726695 0.36557043 -0.035967696 -0.6146679 0.7224622 0.16059743 0.39065465 -0.15791625 -0.4417896 0.052515514 -0.1165023 -0.35767916 -0.23589714 -0.1755497 0.5476481 0.09660271 0.7383259 -0.05928427 0.13200738 0.06680454 0.13817969 -0.36087644 -0.16135615 0.18265216 -0.084702134 0.18352146 -0.15486443 -0.33171618 0.048789024 0.575678 -0.3824137 0.251022 -0.1475543 -0.3090439 -0.09826746 -0.53022575 0.09503958 -0.44723752 -0.10759184 -0.5744715 0.25280198 0.38042003 0.006593069 0.06980005 0.31720462 -0.4998082 0.0068512405 0.07603296 -0.096720114 -0.0013453459 0.7239066 0.10955757 -0.17709887 -0.16071187 0.18472865 0.0329828 -0.33904546 -0.19138014 0.42743337 -0.27566963 0.51466 -0.14807868 0.087227665 -0.1436843
29d585323be2f99c538e961cf083a189 -0.018002018 0.41834038 -0.071654044 -0.24357489 0.7562764 0.028896647 0.40607357 -0.45946085 0.19799468 0.28419724 -0.26357567 -0.0020503297 0.18639064 -0.487355 -0.17898817 -0.33724418 -0.021254906 -0.35954374 0.45148617 0.30330408 0.6224244 -0.45697874 -0.32980117 -0.0074895583 0.6596111 0.2141738 0.085403115 0.312244 0.26623163 -0.046782076 -0.38687894 0.55942047 -0.5006824 0.32940075 0.061250035 -0.07574481 0.21028545 -0.51892924 -0.52610797 0.14295557 0.3034448 -0.07696529 -0.28825706 0.25050417 0.24782461 -0.34855917 -0.18758395 -0.13170667 -0.0068539507 -0.071791366 0.23399727 -0.00065447076 0.2526289 -0.25141522 0.21252765 0.4531006 -0.30408907 -0.11261428 -0.03963382 -0.016312493 0.32296875 -0.2672045 0.41697887 0.33032155
90f9ed512e5ecfe1a1a5898b088669df 0.040753867 -0.18655287 -0.22597706 -0.5322617 0.60123366 0.05602534 0.24688153 0.10479 -0.06822485 0.6394278 -0.12711468 -0.49716994 -0.05973303 -0.2176397 -0.23246767 -0.11399678 0.36371723 -0.11729575 0.63129944 0.6006275 0.25370535 -0.46046364 0.12670894 0.20508192 0.3478791 -0.10563185 -0.014143908 0.03509336 0.023463154 -0.45304647 -0.533595 0.24423024 0.020091683 0.20065296 0.13393033 -0.1595117 0.16101843 -0.46026167 -0.1604054 -0.49374706 -0.057130095 0.227447 -0.33746925 -0.00047433403 0.0060832617 0.30381703 -0.33956322 -0.65276086 -0.07908419 -0.22228579 0.20091327 -0.378974 -0.25398317 -0.12769759 0.08193661 -0.23857918 0.13228567 0.14685622 -0.26662302 -0.5889557 0.71247184 -0.28151163 -0.2070554 -0.47888243
08c29d625ae7f70fda4ac780e96bba65 0.45023376 0.60698426 -0.01026694 -0.18929888 0.41741228 0.096104056 -0.04972633 -0.04836338 -0.3174178 0.35745433 0.0075241923 0.33409426 0.17630665 0.02826491 0.064192705 0.6095068 0.17911808 -0.28559646 0.108327605 0.45432052 -0.39289778 -0.06701255 -0.44067302 0.52977955 0.75591904 0.21229024 0.376982 -0.010635654 0.27077705 -0.49868402 -0.43525752 -0.32640824 -0.16572583 0.13747934 -0.096397474 -0.42992225 0.01012128 -0.64169395 0.05146889 -0.3827617 -0.114325225 0.28659782 0.17694063 0.1598837 0.5858288 -0.2512111 0.28319284 -0.37101623 0.5962425 0.32753474 0.15260337 0.22833894 0.3615039 0.022142377 0.16580975 0.27511668 -0.16572492 0.14368524 -0.09476504 -0.24533544 0.3005522 -0.44262725 -0.035052694 -0.017692953
17cd928487a9dd3529326f1468f5e335 0.022433886 -0.2014045 -0.38812706 0.13077721 0.008222852 -0.11130663 -0.3310693 -0.36643806 0.7099633 0.76662505 -0.29281893 0.0451416 -0.10546644 -0.3284989 0.3535003 0.17716128 -0.43230924 -0.24629022 0.47242346 0.27404818 -0.41386947 -0.39550996 0.13095292 0.1544703 0.5129299 0.36700577 -0.24518283 -0.35357976 0.4339657 -0.030524813 -0.7830686 0.2541997 0.104003236 -0.017200265 -0.846302 -0.5780983 -0.26858023 -0.38473555 -0.0026559383 -0.14844944 0.4872318 -0.5180985 -0.17536831 0.026156865 0.31029195 -0.37557164 -0.5606781 0.06380757 -0.07277698 0.27178586 0.2030002 0.2358256 0.0659594 0.6253329 -0.41771346 -0.26834697 -0.11800507 -0.26539868 0.29141405 -0.41796637 0.3639336 -0.1657607 -0.34144223 -0.134284
85cf9fd889d31bd186093e35f5272882 0.07878044 0.15210949 -0.2670866 -0.014250106 0.38428736 -0.38803762 0.72737485 -0.64961654 -0.2958911 0.16689157 -0.45870402 0.075555325 -0.20168187 0.15199228 0.10337069 -0.05921732 0.08848548 -0.49945277 0.19888565 0.12117079 -0.31462446 -0.07334654 0.035963118 0.13968787 0.22425504 0.03787148 0.3482965 -0.64860225 -0.24297951 -0.3889066 -0.78933686 0.05065475 0.38781738 -0.37686184 -0.17541978 0.28154573 0.6982218 0.24635647 -0.032507602 -0.3085985 0.26190573 -0.18085688 -0.81152743 -0.36569506 0.12878554 -0.8572712 -0.13472965 0.21824765 0.551789 -0.36735263 -0.16094123 0.41959488 -0.042577043 0.38769722 0.18274167 0.09825049 0.1310229 0.019231327 0.19827878 -0.318223 0.74078983 0.04716155 0.4877477 -0.6573916
ff575b27056b87177a114e4446ec3171 0.5438101 -0.22385262 0.10330282 -0.5134977 0.12488766 -0.31665754 -0.034564532 -0.21970314 -0.18693617 0.37085113 0.3145561 -0.19214605 0.29675364 0.017419593 0.06718657 -0.21137741 0.5826421 -0.07921805 0.10008203 0.18128991 -0.5787609 -0.3369279 0.3625532 0.005043174 0.37766042 0.28082848 0.930661 0.33281282 0.1303173 0.34379062 0.13259578 -0.091048695 0.27784732 -0.7177085 -0.2400883 -0.39495412 -0.2173139 -0.09049964 -0.37028632 -0.4054522 0.3105559 -0.583967 -0.76085097 -0.08162973 0.8446432 -0.032991413 -0.2088573 -0.021535348 0.23798811 -0.09966135 0.23107089 -0.030427268 -0.6384939 0.283647 0.22276759 0.18803924 0.014085309 -0.06028612 0.24277219 -0.1898875 0.054946736 -0.40180284 -0.05690476 -0.2157487
dc931dc79a0af1c315c4e98bf9b82d9e 0.063496776 -0.042125966 0.23833829 -0.69033664 -0.1689734 0.29587823 0.24615064 0.08760222 -0.14028803 0.32244828 -0.5482318 -0.36075115 -0.08350337 -0.24158937 0.21526255 -0.27502328 0.19013831 0.12633505 -0.10877375 0.5190962 -0.8282884 0.02275161 -0.18494244 -0.2795762 0.8866769 0.38729715 -0.23198049 -0.17263423 0.5625717 -0.019161113 -1.0103009 0.04452011 -0.062281504 -0.24073967 -0.117768444 -0.42076817 0.30256465 -0.28202534 0.00967134 0.5962386 0.78748775 -0.24829465 -0.19241829 -0.28329438 0.18749245 -0.26723722 -0.15219602 -0.07572107 0.17035519 0.044808153 -0.019351108 -0.3720979 -0.075771615 0.108447455 0.15960756 0.45411247 0.17125665 -0.43714628 -0.48705807 0.1409465 0.61696464 0.13839316 -0.6698241 -0.090725966
7603ab01fcdb035f0229b751ae89cbdc -0.03437 -0.28977838 -0.24882627 -0.65434015 -0.041098367 0.38043094 0.32344496 -0.025269855 -0.01753547 0.34985515 -0.29864746 0.57756406 0.01748152 -0.2962285 0.451679 -0.06425721 -0.07786737 0.014920443 0.3496832 0.2831374 -0.17736143 -0.22415435 0.15100762 -0.58073896 0.27067325 0.19828938 -0.006608997 -0.70801884 0.31520602 -0.23489538 -0.65854627 0.2273823 -0.15963556 0.24215734 -0.67054296 0.1098952 0.2085979 -0.6082659 0.052788958 0.23052602 -0.117828004 -0.35918 -0.41127887 -0.9509888 0.51763463 -0.42431736 0.27798152 -0.47276574 0.25686347 -0.21232104 1.0114058 0.2542394 -0.2852545 -0.0394093 0.27814558 -0.49639452 0.26841614 0.3192346 0.1362731 0.060878146 0.12035308 -0.5352525 -0.091005206 0.31220976
8eba4caddd6b50f52c8f2fdd7304c1d6 0.49569145 0.24544613 0.44923875 0.025418703 0.00713682 -0.09122582 0.019253058 0.015710084 -0.25805956 0.14532515 -0.15353772 -0.19309868 0.4246895 -0.49827385 0.14289668 0.26430663 0.20415811 0.12294892 0.32364702 0.51604545 -0.3741436 -0.9708016 0.51477736 0.26588804 0.35564306 0.19599861 0.2528185 0.30779433 -0.109844595 -0.29219434 -0.29125884 0.4276736 -0.027875084 -0.06144232 -0.09713559 -0.20649871 -0.06948492 0.39225203 -0.7747001 0.44398698 0.014283405 -0.40640312 -0.50897616 -0.4392664 0.14179756 -0.5695187 -0.1865198 0.066116236 0.23444909 0.37420925 0.36309278 -0.23755546 -0.706825 0.26625207 -0.09895283 0.42893302 0.13949102 0.15107073 0.23794541 0.008809208 0.2910434 -0.11445271 0.54841024 -0.19993839
9b98c6b6cf665a0f0129dadabad65fa9 -0.7138067 -0.21597649 -0.31055784 -0.0955501 0.12806559 0.22023827 0.21919802 -0.50270486 -0.015961396 0.10286568 0.17901236 -0.16906448 0.10053385 -0.6860994 0.16024482 -0.20447792 0.022259342 -0.14006783 -0.19708537 0.3024628 -0.4144108 -0.6140972 -0.14631402 -0.32867426 0.3633188 0.48996642 -0.08691331 0.67302805 0.13354811 -0.14676407 -0.8036821 -0.42223755 -0.026832363 0.20096007 -0.528611 -0.008316 -0.08175943 -0.5046107 -0.32590488 -0.49088 -0.17067385 0.77572405 -0.810296 0.08688318 0.4965137 -0.36233208 0.22150554 0.118139505 0.44926798 0.20296851 -0.117837295 -0.025427856 -0.17861234 -0.18481307 0.4564081 -0.53007567 0.22748102 0.06581164 0.18409222 -0.52490085 -0.030328201 0.3011416 0.47686008 -0.1388368
066dfc745c72a86f704807e7977d5073 -0.17583843 -0.092462234 0.352588 -0.09683014 0.023084676 -0.35661337 -0.40233806 -0.0011998536 -0.01238711 0.44891283 -0.20256782 0.05992124 0.2999057 -0.50926423 0.45984337 -0.36614552 0.11906257 -0.3817502 0.58636504 0.4002968 -0.108548135 -0.11914815 0.17454858 0.4851043 0.23962672 0.4780873 -0.3994887 -0.24057478 0.22952482 -0.7020971 -0.44800988 -0.08818512 -0.39115554 -0.47522953 -0.5900974 -0.48173612 0.06353882 -0.5390637 0.6661739 0.60369396 0.45269766 -0.18494895 -0.41127726 0.068326086 0.31163877 -0.020484615 0.40927535 -0.26249272 0.27634144 -0.31048462 0.42447546 0.38245648 -0.39392433 -0.036612056 0.2829846 -0.108915076 0.14297137 -0.40411648 0.3182233 0.3836506 0.9451167 0.2580903 0.426043 0.050200988
055b9d08b2a140e8578b4c44deb56471 -0.34869677 0.24936426 0.5755605 -0.49031946 -0.33339158 0.057328988 0.17939423 -0.38008273 0.52921164 -0.124716155 -0.37372267 -0.12358871 0.33549044 -0.017764444 0.16779968 -0.4716118 -0.062425543 0.029538032 -0.49341124 -0.020317787 -0.5216394 -0.26974744 0.064371996 0.29027265 0.25794154 -0.1296472 0.12816623 -0.13645731 -0.37925318 0.11967821 -0.5823088 0.44468847 -0.4322799 0.16129191 -0.18497422 -0.4697403 0.74896544 -0.43763202 -0.03442142 -0.3705913 -0.051360358 -0.1625633 -0.25824317 -0.1197861 1.2579762 -0.09774701 -0.11387717 -0.28942558 0.3797715 -0.26934767 0.30839813 -0.5506611 0.113589235 0.4378006 -0.21919324 -0.28557518 -0.21381153 -0.39723608 -0.41308665 -0.55628633 0.16596176 -0.18843697 0.4762392 -0.13478856
6f278ba55281533dbc77cc64cbd8c52f 0.34966975 -0.5477137 0.74797934 -0.5569166 -0.0088436 -0.44776416 0.29637393 0.22719823 0.28263542 0.47138593 0.17503683 -0.19008178 -0.13723785 -0.6652553 -0.25470886 0.52386475 0.15951921 -0.44002697 0.10751727 0.036257204 -0.6768763 -0.18916354 -0.30090544 -0.26312482 0.15944672 0.26051807 0.6011685 0.13515933 0.0902655 -0.12532936 -0.21442235 0.1456943 -0.070202306 0.004939924 -0.30280972 -0.3231988 -0.41472572 -0.18044128 -0.007418222 0.049384777 0.23713546 0.36461243 -0.1763931 -0.829984 0.40832326 -0.51748997 -0.32061118 0.26645753 0.056978323 0.04296358 0.61419004 0.021145245 -0.3381774 0.08838137 -0.22145838 0.7369971 0.19399454 0.20502937 0.20472382 -0.42263278 0.36306414 0.077487014 0.78602064 -0.33353707
758f7604e7a5b8cf027aa391a221e5ed -0.06768483 -0.08143462 -0.19757597 -0.20744963 0.41979846 0.55160624 -0.3422665 -0.16083503 0.7883147 0.54964525 -0.63496804 -0.48993486 0.042816527 0.13983652 0.527657 -0.06587327 0.4356166 -0.46862945 -0.043639813 0.13910952 -0.45200852 -0.6365018 -0.04835119 0.52384806 0.49353302 -0.41510645 0.28866142 -0.08004892 -0.6059208 -0.06431269 -0.50022507 -0.14915808 0.30967724 0.38846967 -0.87893176 -0.116991535 0.4099159 -0.10152326 -0.39378378 0.14206474 0.0042593377 0.054751396 -0.25397113 -0.2181189 0.6277823 -0.2436076 0.449271 0.18726394 -0.26463428 0.08104292 -0.12035722 0.0354529 -0.14918303 -0.14009692 0.9398289 0.3500591 0.14795819 0.23349616 0.04753041 0.3713287 0.28751653 0.26739037 -0.123964064 -0.10086016
e9ed269efe28128b4bca3cd05bbbd08c 0.05065124 0.35690716 -0.79568106 -1.0888706 -0.07729701 -0.28446 -0.19542429 -0.03759867 0.035171773 -0.14808363 -0.38098142 -0.45359764 0.18788563 0.15771788 -0.27136484 0.13015424 -0.16086778 -0.30122572 -0.010800255 0.077424794 0.026553802 0.03912146 -0.04737113 0.40909544 0.081528164 0.79473186 0.43481255 -0.38601536 0.21535762 0.12201674 -0.55602723 0.2450728 -0.44260806 0.07570319 -0.62842387 -0.30412877 -0.07898736 -0.37512374 -0.6396002 -0.3085161 -0.09217287 0.35960242 -0.6462348 -0.34886315 0.12945256 0.058851458 -0.04299805 -0.5264739 0.08740726 -0.59494925 0.12946746 -0.2802356 -0.08374542 0.44438314 0.5564663 0.17964573 -0.056994546 0.08173116 -0.1938083 0.16488877 0.015005944 0.5092165 0.17056575 -0.0635007
a578a8a235ae43565a371903e9294f3c 0.3752391 0.23027402 -0.3647821 -0.07479503 0.037138853 0.28955317 -0.08798866 0.30539227 -0.1014649 0.05737126 -0.2469357 -0.23631185 0.2403873 -0.51160514 0.28696242 -0.19461022 0.44351974 -0.36182812 0.23077926 0.46236494 -0.7304737 -0.54328316 0.13232289 0.15881567 0.44520792 0.20310645 0.7633555 -0.052712858 -0.17970252 -0.031094702 -0.4238394 0.42039 -0.46855956 -0.14448518 0.031564668 0.12537542 -0.52723134 -0.40661955 0.5157951 -0.1818123 0.053548567 -0.33682764 -0.5334083 -0.27884945 0.27391425 -0.6347481 0.007980587 0.19844794 -0.70544446 -0.11824785 -0.12818663 -0.4037543 -0.50854194 0.28189668 -0.35238418 0.56992245 0.07426965 0.10944776 0.32335088 0.1196566 0.32828307 -0.3695111 0.68989277 0.18316811
ae6c939f66acbeca6315fda7eaebaa56 -0.05398404 0.031308755 0.2035171 -0.32450408 0.18162821 0.2611975 0.3401815 -0.7864952 0.17041478 0.14018658 0.14033097 -0.18947935 0.33543557 0.31982088 0.27479953 -0.34520522 0.7891799 -0.5475994 -0.38647804 0.5633955 -0.051079188 -0.86999583 -0.1769726 -0.18582572 0.018875815 1.0169741 0.024970995 -0.1570537 0.6334603 -0.21851064 -0.47029802 -0.08083813 -0.4827981 -0.026729094 -0.51605594 -0.5545377 -0.15608494 0.14299095 -0.14231808 0.21173942 -0.28682294 -0.42537037 -0.09551516 -0.30450913 0.3420848 -0.34820673 0.028897895 -0.35229966 0.11229178 -0.66099536 -0.17673336 -0.2031811 0.43292055 -0.43651772 -0.4131029 0.3443511 0.40514007 0.087452516 0.22207351 -0.3893976 0.16755955 -0.37486318 -0.17222527 -0.6134794
0c2ac677304d7ae60c80b12108767c01 0.13078214 0.4746554 -0.42939135 -0.42246237 0.78686064 -0.078418724 0.6982161 0.18197052 0.050419874 0.4226174 -0.2594948 -0.2139592 0.49869668 -0.23398902 0.25478414 0.11106031 0.50317216 0.36786953 0.19135562 0.1917771 -0.7212988 0.0040121465 0.35206723 0.043684572 0.6882734 0.5779958 0.5985641 -0.47006735 0.22680956 -0.6214235 -0.09804096 0.11637488 -0.5488841 -0.24859743 -0.4871317 0.106872514 0.41347173 -0.62979263 -0.4312232 0.50268126 0.22253798 0.03938174 0.0050885957 -0.18835829 0.25676247 0.049179893 -0.33674672 0.60366726 -0.064031795 -0.21283455 0.19422096 -0.28490856 0.19969983 -0.11625541 -0.2757304 -0.6426898 0.27266845 0.15356325 0.5398156 -0.40532345 -0.30053097 -0.110570565 0.22972812 -0.7356758
30836afd90b0ff4969217dbf71b2fe4e 0.6160342 -0.4041772 -0.028595308 -0.40004924 0.12555243 0.341295 -0.15421198 -0.010771304 0.57156116 -0.69591415 -0.2961105 -0.06105493 0.14593463 -0.08161692 -0.053947903 0.22310744 0.42534444 -0.36210805 -0.085895784 0.9419548 0.059810698 -0.16884893 0.17944214 0.18006817 0.579092 0.8006161 -0.14756706 -0.14290683 0.02249635 -0.7455343 -1.0647455 0.25954995 0.41639107 0.14840463 0.04640237 -0.26011914 0.22671415 -0.3060269 -0.3173146 -0.614908 0.48885036 0.099679224 -0.45600966 0.25139505 0.113730185 0.22520812 0.36868924 0.4516256 0.45467353 -0.46074772 0.36158133 0.12164185 -0.07796069 -0.37053722 -0.2102752 -0.07245754 0.20914395 -0.06878959 0.2511978 -0.12909198 0.2109138 0.25496945 0.42078367 -0.037696738
7a34b93bac2ca8f92171b1bec2ea0243 0.6481796 0.79572153 -0.048151676 -0.064793676 -0.007232857 -0.2999351 0.20570166 -0.41769287 0.35602754 0.40252954 -0.31441066 -0.21935384 0.14003822 -0.27675748 0.32944915 -0.1652264 0.02164263 -0.5128453 0.29643604 0.2088061 -0.8010343 -0.67185926 0.3654483 -0.6235701 -0.43634894 0.53702766 -0.10435581 0.006464981 0.018040374 -0.37838554 -0.7235039 0.3111772 0.3558589 -0.22816518 -0.5468737 0.32080778 0.10693802 -0.7100821 -0.1256495 -0.17666137 -0.12319452 0.33782336 0.22368878 0.5520823 0.562363 0.106380194 0.40907338 -0.57120454 -0.052249987 -0.2693457 -0.08329139 -0.6541022 -0.14696726 -0.17925622 0.15701067 0.28589064 -0.09841916 0.26235017 0.2983709 -0.38804367 0.46764624 0.059849396 0.42472637 0.42867634
3ea6276d07d72d5ac28cbd16e0c6069f 0.9604654 0.5139834 -0.17361858 -0.17798832 -0.009917339 0.2717397 0.21761401 -0.6293005 0.19132762 0.80279684 -0.3056888 -0.08115212 0.10166489 0.0569972 -0.3914582 -0.32743144 0.04869913 -0.08161244 0.3996359 -0.33581036 -0.6248877 -0.12492699 0.2488585 0.13202257 0.7830397 0.43028504 0.35498422 0.39559126 -0.12475872 -0.29495665 -0.5226922 -0.14784591 -0.21703263 -0.18298376 -0.29400575 0.037075445 0.18562211 -0.17213963 0.15824504 0.16617602 -0.70526147 -0.2149903 -0.71980035 -0.10886617 0.15140727 -0.25731593 -0.10316131 0.059422724 0.14672689 0.058921825 0.27121326 0.03444883 -0.17851204 -0.4784815 -0.12489222 -0.34827524 0.0066110096 -1.0022407 0.07392794 -0.08678855 -0.21469672 0.1867146 0.2951834 -0.091878854
c290c9e2e7bcac3e2a27084b6bf949b3 0.35576797 0.10777649 0.13541494 -0.72015536 0.06064481 0.2678235 -0.5097216 0.02327933 -0.08440149 0.46382588 -0.5492876 0.017641779 0.44701815 -0.25612453 0.63762295 -0.41642636 -0.011971521 -0.46096724 -0.36534464 0.40389612 0.5754717 -0.069040805 -0.022790225 0.16749062 0.50945276 0.4588533 0.1056823 0.15726966 0.31692448 -0.17016457 -0.67743784 -0.698664 0.24125367 0.12587167 -0.43970713 -0.10978125 -0.118592925 -0.56148064 -0.47607878 0.00014857679 -0.43360025 0.49973756 -0.055868257 0.14936964 0.17229512 -0.19931875 0.120653294 0.9320317 0.28201777 -0.21845435 0.4002175 -0.5960178 -0.3885958 0.49018955 0.028546428 -0.299816 -0.08803033 0.1128245 0.122309886 -0.052095175 0.24040063 -0.4806513 0.45324546 -0.109157585
bot/short_video/short_video_list 0.35971862 0.12736647 0.018336069 -0.36693674 -0.34562725 0.17451936 -0.26578277 -0.46713558 0.64819777 0.5339743 -0.07922123 -0.1735184 -0.108055115 -0.2591174 0.11506305 0.4314121 0.38141307 0.05151039 -0.08760133 0.25225553 -0.1240489 0.47282538 -0.63056934 0.0941639 0.043868713 -0.040506527 0.46528825 0.30919296 0.100094646 -0.27320504 -0.41864812 0.32298598 -0.6793951 0.296571 -0.14483081 0.07134955 0.056819096 -0.34971637 -0.07195749 -0.25156575 -0.06863145 -0.6860001 -0.3623713 0.19851604 0.34768337 0.2077296 -0.54858696 0.37776014 -0.1978012 -0.34275764 0.7520934 0.002657661 -0.68503565 -0.088523544 0.43212435 0.55082726 0.31089804 0.36462924 0.10035275 -0.50394416 -0.029230256 -0.06654151 -0.005949112 -0.064637385
ecee0ba8705f33a7a1447fe3efaefc4f 0.22874987 -0.06963162 0.74468136 -0.24909513 0.5675549 -0.11095935 0.019501653 -0.6627724 0.15592414 0.14532396 -0.44746485 -0.32597542 -0.19125529 -0.591928 0.30898193 0.13378093 -0.075491555 0.39528835 0.4567631 0.59271383 -0.59102696 -0.52981114 -0.36683518 0.2041886 0.1849527 0.5872217 0.38944754 -0.4804802 -0.08657997 0.5115759 -0.2845202 -0.3569632 -0.38714316 0.30348614 -0.38066083 0.3348991 0.4789412 -0.8778248 -0.00039852134 0.06602699 -0.19761339 0.15611021 -0.5242008 0.33597767 -0.14141059 -0.04184645 0.13349265 -0.20981209 0.38269842 -0.41682443 -0.32352984 0.0207331 -0.13271193 0.562699 0.15370817 0.124262065 0.47567084 -0.23667446 0.26809886 0.15622173 0.02673577 -0.8389668 0.028320769 -0.43975252
cb20722e0d7fc4f3f74784f5c4d1a435 0.35151553 0.28415868 -0.45645872 -0.24801803 0.6695289 -0.040650245 -0.47345126 -0.50542414 -0.09522815 0.49801436 -0.49098805 -0.36040986 0.4968712 -0.51902336 -0.2070205 -0.1146018 0.011421653 0.093305655 -0.50551933 0.36884412 0.33364296 -0.029649075 -0.19633223 0.5106423 0.32410744 0.30931127 0.015179575 0.09691548 0.5459559 0.3069196 -0.48847333 0.6419463 -0.20585346 -0.13368355 -0.19872095 -0.115107186 0.7356438 -0.053278923 -0.049862754 -0.21516488 -0.05078731 -0.16694325 -0.22643329 -0.46674398 0.9080714 -0.045169804 0.5248985 -0.067848265 0.33002737 0.27183145 0.12520483 -0.412851 -0.0433844 -0.07922607 -0.46142238 -0.42122212 0.3147807 0.3002849 0.75343204 0.021000508 0.5966111 0.4411842 -0.2185611 -0.31098104
0e8e9e236ea6300b20c164a869161903 -0.21558952 -0.14144652 -0.4670691 -0.49341246 0.41598663 -0.9396639 -0.6014114 0.10586331 0.15213124 0.2293616 -0.36420676 0.043948263 0.022554494 0.22176893 -0.19682926 0.03358348 0.21800837 0.3802848 -0.3819428 0.27443182 -0.1882275 -0.9571913 -0.119025126 0.27599505 0.3894847 0.5579184 -0.014972359 0.14285831 0.5783419 -0.023222 -1.1526704 -0.13797553 -0.07992524 0.42100993 0.27314678 -0.0064810114 0.41237012 -0.31754592 -0.13426852 -0.41998538 -0.09131285 0.15871592 0.114803284 0.2429324 0.3292018 -0.63462067 0.28434646 0.07612224 -0.25396937 -0.4541793 0.7232559 -0.0041584293 0.034075268 0.102499954 -0.054817256 0.5048481 0.5098422 -0.13127509 0.17719507 -0.3207915 -0.0111535825 0.37769508 0.26761973 -0.36860275
0b8a3efea17020ed3fa847f10f4fde49 0.38833752 -0.10592675 -0.23928201 -0.5586617 0.793246 0.3488408 0.15228792 -0.24116696 0.24697746 0.13484992 -0.46148828 0.22662704 -0.2769273 -0.31805 0.68918645 -0.594662 0.5489512 -0.7485578 0.20889933 0.33913365 -0.6003477 -0.19352359 0.1988959 -0.16186205 -0.08304586 0.21464287 -0.13237002 0.14903769 0.46769905 -0.23432468 -0.17151347 0.29773474 -0.3734081 0.51662284 -0.53043675 -0.43945402 0.7539046 0.02490311 0.121183835 -0.48039088 -0.3634966 0.12074776 0.01411041 0.35986638 0.11521352 -0.13238084 -0.3005637 -0.06803293 0.51394784 0.40026015 0.2602233 0.12579787 -0.50187016 0.41010618 -0.11376023 0.36398345 0.52453464 -0.341609 -0.5810343 0.33857927 0.25829443 0.5565672 0.61692894 -0.48836175
fb764e228c0fd84e32b00eb24e6d6749 0.6077984 -0.1954839 0.0135007175 0.08649527 0.25147423 -0.41039458 0.26942825 -0.09487438 -0.40114552 0.48467216 -0.76042753 -0.12623376 -0.24098213 -0.037408017 0.20674668 0.0039295205 0.23941202 -0.8635526 -0.34460708 0.308016 -0.0742642 -1.0319955 -0.70080864 -0.5736276 0.32130298 0.013014317 -0.07675961 -0.13713877 -0.49057427 -0.12688112 -0.5695578 -0.2654869 -0.08167955 -0.022795223 0.08176739 -0.9214726 0.41477472 -0.7569179 -0.30029473 0.16573484 -0.19705826 -0.22753136 -0.6495663 -0.22391179 0.017891577 0.07573462 0.5519924 -0.5010854 -0.27696916 0.13196489 0.38789627 -0.0697592 0.051078837 0.23270592 -0.3875716 -0.20579499 0.4192256 -0.042752504 -0.14012258 -0.39811894 0.091694646 0.35228926 0.38495314 0.03533361
9951e6bc3a56b3c8928f84650f00b3a3 0.34848115 -7.4750635e-05 -0.027779099 -0.78033566 0.31835926 -0.33977282 -0.10914885 0.1217561 -0.041351076 0.6494735 0.092793725 -0.33536556 -0.024227273 0.07031463 0.41553342 -0.06926772 -0.5835589 0.2282461 0.049839783 0.56514174 -0.8803187 -0.1263232 -0.10613848 0.0903206 0.57293075 -0.21260883 0.22993906 -0.6022075 -0.49804088 -0.25176638 -0.818264 -0.09394614 0.041951314 -0.7035274 0.05576573 0.12345665 0.3328839 -0.6228665 -0.15003519 -0.51764673 0.21126476 -0.2087927 -0.5830665 0.17642555 -0.17559308 -0.14755021 -0.2556352 0.03797747 0.3239747 0.40523732 0.37954465 -0.5826383 -0.10239752 -0.74888116 -0.085813046 -0.027058695 -0.044533055 -0.12292837 0.7611109 0.13574064 -0.113316916 0.18286733 0.7068287 -0.094509415
70a8fcf8db7724693827d55fa1c62b79 0.024873985 0.69745576 -0.40639624 -0.5584345 0.21803133 -0.021614796 -0.40064684 -0.091199145 -0.00014573989 -0.15644623 0.24964818 -0.67830664 -0.6604229 -0.4055155 -0.4064668 -0.40159392 0.18373686 -0.039857764 0.25264195 0.2531035 -0.27649987 -0.36245233 -0.36521232 0.652397 0.30805936 0.60298127 0.032047346 -0.023156632 -0.2713924 -0.44116795 -0.29404798 0.20801084 0.22861245 0.18845595 -0.6508587 -0.14809112 0.4592234 -0.016345587 0.2197492 -0.020062715 -0.62661934 0.10742346 -0.3904795 -0.08995983 0.39472932 -0.13952982 -0.33937708 0.0019668757 0.22176442 -0.13663103 0.36586216 -0.09410945 -0.54160035 -0.15023237 0.009036541 0.48093846 0.41212347 -0.40828273 0.9625294 0.20226924 -0.22264075 -0.48868808 -0.29915783 0.0034404302
a5035a7087e1f62a57f2430c2bdc51d3 0.3999016 -0.39185908 0.42128822 -0.46992618 0.5120513 0.49567503 0.607329 -0.301043 0.1228546 -0.011397675 -0.37902746 -0.37333727 0.74777615 0.19283482 0.29345953 0.023153292 -0.18454632 0.23871139 -0.35889763 0.23062335 0.02230286 -0.869795 -0.2531137 -0.18270175 0.42796335 0.5213981 0.28375822 0.08553266 -0.35654384 -0.9521302 -0.42141327 0.16851147 -0.039637484 0.40564585 -0.4473525 -0.28221932 -0.43057817 -0.43540633 0.4563745 -0.37917554 0.0055047907 -0.16069931 -0.39887857 0.056206383 -0.09943064 0.27132007 -0.31835997 -0.102076285 0.12058479 0.23255524 0.15410095 -0.32772288 -0.40120298 0.82030135 0.5301874 0.1575884 -0.4365171 -0.43206036 0.49544743 -0.014456068 0.54246694 0.23312654 0.105769336 -0.20469058
67669640d674c725a1305df334feb0c7 0.45547828 0.45638806 0.19572729 -0.2955668 0.1265577 -0.05752525 -0.4149066 0.033554334 -0.47267875 -0.15909217 0.19820532 -0.18678547 0.13296688 -0.4095048 0.63295996 -0.5859833 0.51087373 -0.7570911 -0.016787888 0.26623455 -0.7612932 -0.29181463 -0.48433584 0.36220726 0.25236273 0.41619447 -0.036711562 -0.22301912 -0.14324456 -0.121001445 -0.8524009 0.27003875 0.24427074 0.54079473 -0.09802852 -0.8507845 0.113314845 -0.33435342 -0.3588813 0.64560354 0.41176236 0.5167387 -0.19791323 0.016435312 0.43193957 0.12540428 -0.35261405 -0.19071575 0.058210857 -0.4155354 0.38385147 -0.036453005 -0.5270885 0.26848415 0.41532952 -0.38791618 0.33092588 0.22751375 0.16017689 -0.42222956 -0.63593245 0.13361059 0.039910283 -0.39759454
04c46c3c1e4951bd9b8c0820df8b216d 0.38209555 -0.5281074 -0.0206413 -0.35303885 0.3052951 -0.27089754 0.035246916 -0.5997634 0.08052956 0.9240109 0.046941403 -0.29024485 -0.20776574 -1.1760021 0.4460931 -0.02597285 0.10185085 0.087497815 0.312649 -0.3594764 -0.24119128 -0.72389257 -0.19543077 0.13628885 0.11379817 0.35417408 0.6353019 -0.3201447 -0.33972344 -0.58152604 -0.47284517 0.21215254 -0.08900537 0.084144846 0.2938233 -0.048262753 0.65812016 -0.07943869 0.19956216 -0.27966464 0.46664485 0.4720229 -0.57391673 -0.0159474 0.81973344 0.28401527 0.2724023 0.34858024 0.3581167 -0.17867935 0.4334658 -0.17191137 -0.014356403 -0.045864034 -0.24989232 0.41034138 -0.2714726 -0.4086109 0.25252527 0.112989195 -0.19620827 0.044509124 -0.31384143 0.37228146
a56a5f27346317d83a50c2128322c399 0.7599352 -0.13331285 0.117050745 -0.14661618 0.4519421 -0.0055994587 -0.16841061 0.007799329 0.0023892368 -0.2030768 0.09894202 -0.28252795 0.54007614 0.49227607 -0.2296293 -0.1358646 0.44146025 -0.19525929 0.45147675 0.24838218 -0.28377694 -0.48025745 -0.12525514 -0.59567326 0.66353244 0.21185026 -0.3286697 0.35098588 0.26899847 0.08548499 -0.09017426 -0.25753054 -0.11732816 0.02187411 -0.63637596 -0.20013587 0.90181214 -0.97463506 -0.59644634 -0.039760035 0.13731542 0.029990306 -0.27023375 -0.4732177 0.6131168 0.14118345 -0.22642414 -0.0014520708 -0.097700655 -0.102659255 0.25633746 0.8463193 0.30740353 0.93323755 0.46773848 -0.03469423 -0.0050135916 -0.028809017 0.2254569 -0.24601777 0.4002714 0.4925155 0.19672751 -0.1982638
1c351dd2b48b5269d327b2e6cd3cc864 0.4199514 -0.34997767 -0.103901446 -0.3459655 -0.03655748 0.18237644 0.64589006 -0.48436868 -0.041042075 0.56093884 0.36571217 -0.3522066 0.36462644 -0.28530863 0.11923537 -0.51022685 0.48270172 -0.288505 -0.06142884 -0.06735737 -0.8998486 -0.51435184 0.06002299 0.45486125 0.19518664 0.23275577 -0.41758695 -0.5428527 -0.077581264 -0.23675668 -0.19134828 0.047912173 0.073054224 0.8754489 0.35722086 -0.14955819 0.03412588 -0.78002024 -0.22604416 -0.105306484 -0.34661105 0.06763396 -0.14408116 -0.028791655 0.26667967 -0.56257063 0.07830834 -0.4682573 0.48048338 -0.21135324 0.7791982 -0.03236867 0.44941893 0.6199166 0.05054645 0.072802015 0.13577168 0.061876483 0.77336025 0.24523415 0.21429421 0.75013214 0.22563954 -0.2638774
5761cba594673401752678b15067ff2e 0.07962218 0.28185016 -0.15671916 -0.07303894 0.10287008 -0.022651533 0.37047958 -0.10267746 0.39542913 0.7982965 -0.28613108 0.24347031 0.82261544 -0.011823962 0.10367685 -0.30006373 0.70449716 0.28482512 -0.1469838 -0.053765915 0.22300747 -0.27961832 0.10626446 -0.23795737 0.08203083 0.79045945 -0.25250393 0.20076212 -0.90870184 -0.55998397 -0.83558905 0.016502215 -0.41245475 -0.33007082 -0.19651726 -0.27517337 0.39945284 -0.38261795 0.20738468 0.12280867 0.07905388 0.21825844 -0.06002358 -0.5945511 0.18191808 0.23648947 0.4606662 0.09824154 0.4242098 0.10809995 0.17417598 0.08413374 -0.019255517 0.47673917 0.6280247 0.61583644 0.189958 -0.17803358 0.61132205 -0.5983774 0.16332178 -0.579296 0.11360788 -0.48009145
1834ecaa8761c584261f4a31b91bf286 0.04612796 -0.092928 -0.58991355 0.021888291 -0.22111297 -0.46399415 0.069050826 -0.2857763 0.50778776 0.36760566 -0.44179702 -0.81953144 0.17462197 -0.57337505 0.2259591 -0.17975688 0.38274354 0.3462432 -0.09419135 0.23413184 -0.29748166 -0.5686026 0.23102824 0.7917559 0.54732656 0.22488964 0.2448367 0.33805656 0.09914342 0.13255352 -0.16680548 -0.45968214 -0.3893542 -0.49195787 -0.45202354 -0.14279248 0.5846712 -0.29209197 0.5696938 -0.52580947 -0.28484792 0.41724426 -0.039752074 -0.35843992 -0.16366486 -0.33436304 -0.434896 -0.23826067 0.34011656 -0.06934245 0.3934852 -0.20375408 0.4287218 -0.10016233 0.0839914 0.6861185 0.40189672 0.08177169 -0.0789703 0.08454402 0.33709452 -0.08700219 0.35248622 -0.16023058
3665aaf7cac31d78045290b8b8b518d9 0.040478278 0.21395172 0.15638897 -0.9455382 0.7528881 0.06362028 0.50975895 0.16871564 0.5082072 0.27183384 -0.7663242 0.27051893 0.27372792 0.025616769 0.12676965 -0.19224179 -0.054837715 -0.2761858 0.49091923 0.9347169 -0.9139816 -0.26497343 -0.2981417 0.5562126 -0.20913218 -0.23244439 -0.16424777 0.6388365 0.34735402 0.018101187 -0.3210265 0.25552052 0.03590845 -0.21305704 -0.39090705 0.18992545 0.078029804 -0.323396 0.12057303 0.2491168 0.07870893 -0.13882044 -0.23775092 -0.5325455 0.15998709 -0.273108 -0.4013589 0.19971538 0.9293232 -0.63808036 -0.24066404 0.055884678 -0.3712714 0.42283362 0.12892447 0.0585684 0.09125837 0.13367559 0.81497467 -0.46612102 0.014477171 0.47909376 0.42540306 0.10882879
7253796b47716f5341eb9c283f8ad480 0.51417 -0.058256663 -0.22927354 -0.7338835 0.09241726 0.053414047 -0.46551076 -0.31807116 0.47637856 0.1826273 -0.28428245 -0.34845427 0.2706857 0.005633433 0.39352065 -0.016673595 0.6286002 -0.0729775 0.20304957 0.22528586 -0.06464052 0.02469171 0.18853682 -0.18296699 0.16802742 0.37408528 -0.13160974 -0.14235927 -0.37491554 0.21642826 -0.4202907 -0.17971401 -0.40643123 0.31189227 0.21711601 0.30839038 0.3372739 -0.5667255 -0.50925666 0.2922515 0.312797 0.263715 -0.5636593 0.064732306 0.5331441 -0.36608985 0.08636075 0.01272522 0.91478086 -0.023477405 0.08974266 0.04391829 -0.5078705 -0.17018831 -0.74989235 0.6418071 -0.35086495 0.8627778 -0.16755539 0.043755315 0.39359903 -0.010665011 0.07082922 -0.70010877
81367f8acfc4835a257bad39f859c327 0.22042206 0.024807526 -0.020214166 -0.58468956 -0.08122593 -0.31610894 0.36322662 -0.78632694 0.004462245 0.691541 0.6921649 -0.31922117 -0.40438604 -0.1406807 0.5965589 0.03486632 -0.2695641 0.042960677 0.08542305 0.17944962 -0.22510819 -0.015925627 -0.17624538 0.6481317 0.31231165 0.39514914 -0.30726257 0.36640647 0.3417732 -0.42287117 -0.93447876 0.83863837 -0.015478882 -0.20747897 -0.11872103 0.1427756 -0.13765787 -0.41589916 -0.31558982 -0.3750843 -0.18503553 0.11251322 0.2323378 -0.38292405 0.82011783 -0.03312165 0.116290376 0.39480639 0.053840898 -0.42465267 -0.22531842 0.10043497 -0.6707635 0.027300367 0.48251143 0.13149868 0.14389683 0.15101758 -0.15708482 -0.3594674 0.21107519 -0.19037883 0.37603274 -0.09078544
db4435d1177929a9ee4a69b528f5d2d7 0.5765561 -0.056909513 -0.26578954 -0.74969727 0.42549908 -0.19854002 -0.43534142 -0.7250397 -0.32988745 0.17577532 0.02421838 0.34313205 0.47815308 -0.32142764 0.15030022 0.0022923993 0.31086528 0.49948695 0.012690436 -0.0338189 -0.34322447 -0.17046401 0.1217594 -0.31884772 0.012797885 0.25051704 -0.5599571 0.09417527 -0.5989257 -0.09026407 -0.8913806 0.021353714 -0.05802886 0.2537881 -0.3847889 -0.55404174 0.7387414 -0.7698296 -0.0975013 0.025458751 -0.05224803 -0.7147848 0.13978922 -0.120129034 0.4631407 -0.24621186 -0.10436814 -0.0450087 0.26106974 -0.51130307 -0.20761044 -0.15315765 -0.46881247 0.33321887 -0.36814934 0.3017814 -0.38942516 0.027469477 -0.1398068 0.16648503 -0.072080895 0.27916503 0.8096896 -0.2067881
116ea2d862c41fdb23d0f1381d7ec1e1 0.11152846 0.40855873 -0.3345271 -0.42350787 -0.16662507 0.4243705 0.115120165 0.21350841 -0.31423336 0.16366506 -0.1275294 -0.21213302 -0.19810876 -0.38032848 -0.054714415 0.40963477 0.024054509 0.26063722 0.28476876 -0.18463929 -0.5560871 -1.1067705 -0.12793206 0.1305509 0.10145623 0.024749162 0.05226094 0.17888436 0.34837526 0.17689586 -0.40975046 -0.2677972 -0.28581238 -0.08240758 -0.24812467 -0.087904654 0.69273174 -0.5582658 0.73826694 0.39709967 0.3968434 -0.10548388 -1.1478102 0.5347108 0.7928621 0.28337708 -0.16029842 0.54942685 -0.20819524 0.11971911 0.59324044 0.07871989 0.25417498 0.3818437 0.047044992 0.23950058 0.34940198 0.24116026 0.28238547 -0.5196409 0.22070771 -0.10817757 0.37733912 0.045996826
e34946895799d8eca6e71fd070aaab46 0.2511967 -0.019847885 -0.07562046 -0.9124065 0.10179641 -0.1440146 0.745139 -0.3268265 0.053157173 0.2943507 -0.044734705 -0.13851196 0.24183524 -0.48097047 -0.1088604 -0.0068662865 0.039760772 -0.45756304 -0.6333731 0.21637945 -0.3160244 -0.43677133 0.2644147 0.17892851 0.34600675 0.25363106 -0.53230476 0.08686588 -0.04404481 -0.086944945 -0.3924464 0.94401175 0.29846147 -0.21580394 0.07027685 -0.21785095 0.5363931 -0.5887958 -0.32300964 -0.119638085 0.06234731 -0.9412805 -0.08709261 0.47667938 0.36156034 -0.031629805 0.2834052 -0.08131326 0.03441951 0.1554448 -0.08922951 0.37926438 -0.033425983 0.56169355 0.6672858 0.19749245 0.31622452 0.089988254 0.9411848 0.4509979 -0.033820167 -0.5497177 -0.06588645 -0.54036254
6facf41fa50a0d0da57dfe5a16d8de4f 0.2091878 0.29384735 0.2082563 -0.3164644 -0.089073464 0.2813135 -0.06703346 -0.49678615 -0.21264121 0.2362823 -0.23601627 -0.3208215 -0.036288057 -0.19028191 0.6171017 -0.091562964 -0.13618256 0.5097956 0.3479595 0.49256268 -0.27052796 -0.103016794 -0.09806964 0.34128702 0.24137689 -0.02310361 0.2897464 0.0066008247 -0.56887376 -0.1945178 -0.2939628 -0.027730804 -0.2542129 -0.3552912 -0.61620426 -0.625041 0.16534193 -0.32557166 -0.42317325 -0.4585049 -0.45630312 -0.3009227 -0.34311494 -0.3927449 0.06418086 -0.32447207 -0.36821085 0.26264536 0.53046405 -0.1403321 0.509829 0.14319976 -0.50455016 -0.08822007 -0.89327145 0.3841731 0.6102352 0.12755275 -0.59905976 -0.2126253 0.55335695 -0.046834692 -0.30037785 0.6184441
efd4383053957e31d7a154a8ac840a6f 0.4563418 -0.5391344 -0.1691999 -0.61986566 0.78726006 0.5154744 0.6220336 0.29450586 -0.12629339 0.36731002 0.047774006 -0.6740471 -0.55887544 -0.24418658 -0.25702798 -0.12736164 -0.527806 0.10391195 0.026440915 0.35313877 -0.76146764 -0.6035287 0.41067544 0.34674734 -0.24194533 0.77735645 0.27040178 -0.12232189 0.28738332 -0.22012784 -0.5643155 -0.10744151 -0.5286933 -0.01812388 -0.6609931 -0.5221352 0.45975032 -0.5107364 0.21098039 -0.2887355 -0.2689385 -0.51654536 -0.17592487 0.033551946 0.1711103 0.18974265 0.72290593 0.1148964 -0.3617548 0.19057724 0.39263237 0.14076632 0.0097557735 0.26456922 -0.27985215 0.13141054 -0.38897654 0.43625695 -0.017375888 -0.09022513 0.018850513 0.2132419 0.1956021 0.22399913
7b9a19c889749a24bb1edc6fd3161b42 0.6961366 0.024487533 -0.10605031 -0.1715086 0.70134306 -0.40532875 0.49587134 0.11497028 0.4052171 0.10152803 -0.037851583 0.3842564 0.36819997 -0.5542859 -0.87852484 -0.33855164 -0.024688 -0.47356096 -0.3968206 -0.08960842 -0.32371104 0.13891721 0.41185647 0.38377804 0.78574497 0.09443044 0.006662531 0.07446055 -0.37155172 -0.20550479 -0.98012596 0.04611827 -0.2849268 0.123840645 -0.66594565 -0.4515358 0.18177642 -0.88291067 0.047644783 0.03204831 -0.30052888 0.105340496 -0.3011663 -0.069059104 0.038856227 -0.32537436 0.040924847 0.24628295 0.11740235 0.14177342 0.27275962 -0.11372849 -0.21159975 0.53495634 0.047533013 0.042749103 0.98948973 0.4903322 -0.21656078 0.0021654638 0.12050523 -0.03879135 -0.11613535 -0.2031505
af21be94d876bcd42416473344ecf784 0.3881159 0.2621909 -0.065901846 -0.41428438 -0.17103091 0.16422084 -0.10918158 -0.09127984 0.0512297 0.75561976 -0.2920392 -0.052591763 -0.3277482 -0.1875499 0.28172594 -0.20890021 0.63953304 0.2903771 -0.20365332 0.46830997 -0.33556834 -1.0646 -0.11096725 0.7538095 0.22556597 0.16772604 -0.21775231 0.1337227 0.22747947 -0.45839274 -0.5420701 0.1692237 0.12033054 -0.75879 -0.40129697 -0.25838086 0.8674439 0.045372546 0.10467087 -0.19884984 0.08655284 -0.25917956 -0.1760021 0.15208207 -0.11441446 0.33713472 -0.18352614 0.62481326 0.44928515 0.07907003 0.6221463 -0.12447994 0.108536 -0.05445734 0.070735626 0.32984164 0.6351248 0.061223112 -0.11189272 -0.25476792 -0.1766513 -0.6542826 0.014069343 0.32226562
98d174010e860453ffb03f0547d84ed0 0.20829609 -0.20106567 -0.10262874 -0.6173433 -0.32232675 -0.30722895 0.2624893 0.13426411 0.008181634 -0.23748428 0.1323331 -0.19098155 0.22103381 0.014289038 0.17963101 -0.11154193 -0.33518916 -0.26814285 -0.4405435 0.6908111 -0.06453035 -1.1692655 -0.32933822 -0.04389241 0.5771493 0.09188335 0.91652155 0.031584673 -0.45255914 -0.25404143 -0.6011774 0.41020358 -0.66893363 -0.3340306 -0.12143067 -0.7038673 0.6469044 -0.65632135 0.011917555 0.3270361 0.2578367 0.30868948 0.5475805 -0.28613847 0.2967969 -0.22268337 -0.35880464 -0.087898776 0.5906025 -0.25238627 -0.19188915 0.29629353 -0.26169792 0.33078188 -0.19807127 -0.15172802 0.4154501 -0.09715586 0.65137553 -0.045188453 0.3553782 0.28705803 0.1539822 0.25328022
9fe2ec94d8965a6d87569a698e12e646 0.07430913 0.29605186 -0.54765934 -0.79485583 0.47710428 -0.00605698 -0.002569573 -0.53393257 -0.38949084 -0.16848712 -0.3185314 -0.22053388 0.5417982 -0.39543205 0.0096869655 -0.24158561 0.09729925 -0.60714257 0.015203245 -0.029697169 -0.6101334 -0.26972765 -0.08601564 -0.39690602 0.19677016 -0.18430655 -0.15335761 0.30622405 0.03778106 -1.1300178 -0.56523395 0.38914987 -0.034758292 -0.022024829 -0.3015923 -0.19705515 0.5239004 -0.37077725 -0.3885435 -0.6300694 -0.2500015 0.20152283 0.030823933 -0.54062647 0.2811495 -0.51497006 -0.10574078 0.017145447 -0.1196024 0.18051693 -0.14725316 -0.32708815 -0.022727652 0.9167516 -0.21937378 0.53022236 0.26066732 0.26303723 0.27137035 0.3546881 -0.0032226562 -0.39594322 -0.8230854 -0.044474516
ea02b1cea793d305c346f0724efa6370 0.10790407 0.13760047 -0.24680777 -0.35537145 0.07910372 -0.108203925 0.27787337 -0.56565475 0.029420398 0.44461313 -0.10312879 -0.91879493 -0.6052489 -0.39769903 0.2893357 0.26999786 -0.08355965 0.30421612 -0.14102723 0.021634305 -0.26823717 0.29609066 -0.63195944 0.3341523 0.84777915 0.3636468 -0.029289661 0.3278796 0.16319956 0.02780041 -0.74328285 0.2340767 0.15124768 -0.078847736 0.14146632 -0.32641974 -0.048391454 -0.7896483 0.3845021 -0.32304108 -0.27662775 -0.27327228 -0.2104849 -0.6994563 0.34770635 -0.08360937 0.46276036 0.07039133 -0.16094857 -0.39550886 0.1781213 0.3556647 -0.21832411 0.2668455 0.61798126 0.18035936 -0.008589812 -0.03453378 -0.12758791 -0.60261315 -0.24857949 -0.05379623 0.71142334 -0.32748833
2543fc3c6f0b1d1ad180af94314c7da1 0.18196508 0.2075686 0.08757314 -0.27313584 0.58928114 -0.0375923 -0.31394055 0.15637453 0.18668991 0.43983236 -0.63640004 -0.36757544 0.47563726 -0.41058075 -0.24076879 -0.24086834 0.40223002 0.10389756 0.32330605 0.1521965 -0.49701086 0.12052203 0.39283514 -0.57738423 0.708401 0.5645 0.34515232 -0.4713552 -0.40796262 0.4050492 -0.3833259 -0.0150202615 0.49087763 0.3688495 0.12438222 0.3311798 0.09769576 0.42688558 -0.042918086 0.21216281 -0.29884598 0.37614018 -0.58515847 -0.33911943 0.8624814 -0.017769562 -0.61245114 0.1192803 0.35781646 0.15987639 0.081639186 -0.5836698 -0.22756864 0.21116026 0.49378675 0.27070284 0.38175786 0.011971428 0.357386 -0.23183838 0.39663756 -0.27980152 0.85209644 -0.061581038
38de4d6b0d4587da70543338d3ee747a 0.5706893 0.7167504 -0.12573484 -0.54351753 -0.06364388 -0.29932004 -0.4459571 0.0886192 -0.4044523 -0.17241108 -0.49803603 -0.47432888 0.53069365 -0.30793774 -0.4708125 -0.06511613 0.28450346 -0.08244279 -0.44184276 0.15591821 0.042481348 -0.20857383 -0.4117733 0.13183542 0.20156524 -0.21460307 0.38424602 0.2694051 0.18236007 -0.39476317 -0.97442985 0.14114529 -0.21727216 -0.02740616 -0.65800446 -0.04335634 0.8071579 -0.31595048 -0.12270968 -0.19705467 -0.21265331 -0.46871614 -0.4749436 0.1527009 0.19577247 -0.14997874 -0.03273553 0.04564958 0.24643691 -0.86285937 -0.16700618 0.09915001 0.06972019 -0.14742655 0.463963 0.16611873 -0.36790815 -0.10719729 0.22714376 0.44320568 0.4055797 -0.10714058 0.35541165 0.18391597
4100bdc08c94a268f7c4f4915c1c0f56 -0.41987315 0.35406741 -0.60395956 -1.1326727 0.16892569 -0.33217904 -0.121516496 -0.3852429 0.19790795 -0.09470916 -0.048945185 -0.86768824 -0.12148726 -0.17556302 0.099752426 0.12282881 -0.032242004 -0.22437699 -0.31742692 0.22928281 0.026845545 -0.57891303 0.37826884 -0.12165173 0.4844773 0.70153135 0.52435184 -0.4664533 -0.0010131705 -0.14039898 -0.6926558 -0.09524355 0.31655544 0.234234 0.15560485 -0.12203375 -0.33139428 -1.0262233 -0.06393392 0.31711277 0.20264646 -0.39847618 -0.15006335 -0.009304233 0.3095525 0.17268547 0.64342237 0.44087914 0.32161862 -0.0043810066 0.11277236 0.26686412 -0.052540272 -0.03581184 -0.5237705 0.34714916 0.32093087 0.12407703 -0.40300336 -0.37908813 0.7281576 0.06007654 0.22879437 0.039230205
52f5c825da8622effc4713dc5010b1de 0.12297872 0.56946033 -0.5525401 -0.8315231 0.35548446 -0.26608738 -0.50317353 -0.3681142 0.17172608 -0.08073398 -0.1354562 -0.50458777 -0.0130890785 -0.84691006 -0.25334528 0.3886644 -0.45775095 -0.41180247 -0.3092839 0.58857936 -0.057432275 -0.46059433 0.3262295 0.21163383 0.10876651 -0.038579352 -0.09399566 -0.0012515236 -0.17492871 0.030417878 -0.05099751 -0.1752785 -0.11886007 0.24331585 -0.16597022 -0.8206696 0.40168488 -0.12053358 -0.020936748 0.12103973 -0.82517934 -0.0037056424 -0.6147818 -0.45502108 0.25883514 0.11861533 -0.4245767 -0.13626388 0.3326176 0.7414758 0.52539957 0.40890148 -0.0014433109 0.17887406 0.21080175 0.42471874 -0.14767751 -0.43694693 -0.01372141 -0.0931256 0.19107454 -0.21091768 0.3207394 -0.5108486
9d6051efb27c7bbaf54d7e6d65143f7b 0.44700152 0.06017471 0.030204456 -0.12069564 0.5024746 -0.17485432 0.021309884 0.26169145 0.38040516 -0.26672262 0.3171041 -0.6211626 0.08502654 -0.81934583 0.29430026 -0.28701922 0.50792664 -0.14703563 -0.49950102 0.0067460975 -0.35285044 -0.46184367 -0.44322103 -0.2852217 -0.12563308 0.08766708 0.1799973 0.009962901 0.60530883 -0.26748058 -1.0247205 -0.14697735 -0.26475662 0.2799964 -0.5336159 -0.26063764 0.54445577 -0.3092656 0.26373047 0.13094921 0.28393483 -0.53165495 -0.24556977 -0.31322291 0.41355568 -0.037605178 0.44665202 0.7888601 0.18114313 0.30812645 -0.056399945 -0.38921073 -0.13479537 0.38944364 0.42122677 -0.06939295 0.25282893 0.5483615 0.14587693 0.3344159 0.57352984 -0.86671436 0.3779473 -0.29157773
d8de7330851d4209cb000ea7548630fa 0.250511 0.053404592 0.16136351 -0.14161335 0.21409638 0.110839434 -0.3819904 -0.21136262 0.23938031 -0.25518578 -0.18328726 -0.5696267 0.047824513 -0.45767322 0.251133 0.3764255 0.2663407 0.1120009 0.10818911 0.32516828 -0.32094875 -0.79302686 -0.29401076 -0.24672474 0.406524 -0.24449596 0.08524274 -0.58854586 -0.26326063 -0.6423364 -0.13438104 0.40063414 -0.94044644 -0.7477049 -0.40328887 -0.31698567 0.8344598 -0.15116726 0.19518003 -0.43112165 -0.49076766 0.03157137 -0.69277024 -0.16577406 0.09193961 0.17033312 -0.6647514 -0.21803756 -0.08177143 -0.014701903 0.4092386 0.30333647 -0.1224029 -0.28820753 0.5343918 0.5071838 0.15848197 -0.06217502 0.12479729 0.48461282 0.15355566 0.068801284 0.42521292 -0.097975865
422303318d55f2a1c22a664058034609 0.71885616 0.32924435 -0.33476108 -0.4168011 -0.15801647 0.26759943 0.25075895 0.22478153 0.99997073 0.17859393 0.08514358 0.14856666 0.21255402 0.11253694 0.43174487 0.26919225 0.7967267 -0.5930027 0.1653964 -0.15290882 0.06959122 -0.83542585 0.43515834 0.29692817 0.29686487 0.23129338 -0.06250979 -0.70460594 -0.13069713 0.22245537 -1.0224191 -0.17520437 -0.5500971 0.35863888 -0.14962691 -0.42089325 0.14251184 -0.6158955 -0.004528595 0.5531563 -0.47867864 -0.24469084 0.045774758 0.12931715 0.18931367 0.24184881 -0.7302015 0.020921614 0.48388737 -0.32181588 0.13344654 -0.07114176 -0.02102475 0.009740876 0.32599565 0.50458056 0.042229086 -0.331615 0.08225694 -0.012425554 0.13615924 0.0478534 0.68500966 -0.2610302
3ba8e1a35be8f5bc065ad83e29174a4e -0.08342998 -0.20892088 -0.5778001 -0.4442908 0.18249513 -0.065505296 0.17401218 -0.24818175 0.18719919 0.10136708 -0.3484891 -0.05068142 -0.030327277 -0.11245196 0.5178698 0.07891589 0.15897487 -0.12689276 0.3211162 1.1258345 -0.78131074 -0.3809614 -0.06301429 0.39483634 0.073278114 0.910717 -0.01962746 -0.08083448 -0.3005089 -0.4241692 0.106872186 0.22673324 -0.15438022 0.13137878 0.29492623 -0.10850626 0.22261277 -0.37393475 0.23408392 -0.14966896 0.84607536 0.26346186 -1.0503618 -0.6708328 0.11338741 0.21880843 -0.22408801 -0.51101416 -0.095103994 0.6376667 0.5547687 0.4198708 0.30807966 -0.0058332817 0.114018746 0.45330653 0.12353497 0.07620921 0.19593593 -0.16516642 -0.21797584 -0.6690307 -0.17594528 -0.43997407
8c48eb39686183a3ea8a3370eab0e420 0.45542812 -0.19918908 0.33756948 -0.45006824 0.035965607 -0.119861804 0.077244006 0.4735206 0.57975227 0.70380664 -0.37573814 -0.84409565 -0.26708516 -0.3168933 -0.36262757 0.10916812 0.0398534 -0.5235752 -0.27729997 -0.65040827 -0.15497579 -0.36498433 0.3991756 -0.079339325 0.48027936 0.6266918 -0.009451732 -0.05445007 0.31575522 -0.07314078 -0.4128412 -0.12342516 0.2938858 -0.3962227 -0.049561143 -0.2551996 0.6988392 -0.32702675 0.16569087 -0.015753217 -0.098682456 -0.43492165 -0.4359757 0.2899411 0.42359295 -0.047646258 -0.4270893 -0.4984069 0.61841804 -0.32852358 0.32528317 0.14868575 -0.51333517 0.11541758 0.3860711 -0.22750852 -0.32790798 0.5476462 0.37482634 0.31639716 -0.102060564 0.36416787 -0.19306292 -0.1460654
2759fe8e7ae1d83b7f13f6aa2da94e52 -0.14716049 -0.26415092 0.65125734 -0.4539722 -0.27603894 0.07117538 -0.14839223 -0.23619592 -0.21095343 0.20051634 -0.73141605 -0.57900506 0.24349003 -0.01581047 0.024852315 -0.074444726 0.23083808 -0.07023615 -0.25990883 0.3125775 -0.33761248 -0.3058433 0.18190761 0.9856287 0.48571852 0.45120075 0.20667373 -0.053324025 -0.42231366 -0.03397059 -0.52709144 -0.026864847 -0.03622772 -0.60900563 -0.70907855 -0.20371556 -0.16526921 0.08676432 -0.059195515 -0.4792331 -0.64825106 -0.19677413 -0.18612213 -0.34370232 0.09270175 -0.044471566 0.013221762 0.09222992 0.1593174 -0.4676916 0.6078309 0.2521782 0.018076083 0.3139924 0.03626524 -0.21804477 0.15087892 0.4672838 -0.08820778 0.061277453 0.042481463 -0.37065947 0.4495811 0.39681855
d7dd1eb7004d5e014d1aace9a01c7d7f -0.74419147 0.2642043 0.37660047 -1.0068952 0.37848127 0.13495204 0.099668875 -0.29964432 -0.4298482 0.9846884 -0.5811032 -0.7249172 -0.17038526 -0.28209174 0.07766224 0.38891855 0.11814734 -0.59027904 -0.29512975 -0.06956024 -0.081891686 -0.52016044 0.10937591 -0.14319544 0.24765553 0.17398465 0.38397723 0.19960693 -0.21698947 -0.002783121 -0.11795792 -0.19426598 -0.23658791 0.029390853 -0.27260658 -0.5801139 -0.1473773 -0.006889603 0.51885176 0.24995542 -0.65377235 0.37848407 -0.043677118 -0.28482231 0.64126456 -0.18627167 -0.2311547 0.19382331 0.017115721 -0.13182697 -0.41615516 -0.10446274 0.30015525 0.49929288 -0.17369393 -0.023787737 0.58808094 -0.28507802 0.23244461 -0.15131669 0.38918447 -0.40424052 0.17686693 -0.084064804
6a174425a85479ef2a30aa5f8d208d09 0.7697825 0.107248716 0.05819021 -0.37091962 0.49201697 -0.820126 -0.30177703 -0.1224053 -0.19578683 0.6861458 0.0681785 -0.7023062 -0.3099404 -0.14174746 0.4028907 -0.8488106 0.09935566 -0.2838917 0.1583377 0.28569695 -0.3026165 -0.4053753 0.122865476 0.10157489 0.28400305 0.28894612 0.5816273 -0.2759076 0.047646716 -0.683978 0.10493488 -0.36006096 -0.356795 0.0040806155 -0.8502749 0.45177048 0.682646 -0.34520534 0.00287287 0.3162535 0.1973238 -0.0049144914 -0.27957815 -0.18831426 0.23193918 -0.0033794641 0.029465947 -0.18415049 -0.16891716 -0.4072471 0.62684524 0.26741287 -0.09792361 0.09094382 0.034394946 0.6114145 -0.46030998 0.50239176 -0.41250378 -0.15526114 -0.20887178 -0.17968367 0.23945037 -0.13723484
d4a186ed0283ef4ec4617368c7df511f 0.09249563 -0.01684016 0.18348214 -0.45314246 0.20726113 0.30533856 -0.69713634 -0.28183815 -0.50183594 0.14486139 -0.5552463 -0.5242381 -0.36907643 -0.10856048 -0.73470503 0.13392697 0.047278885 -0.31220427 0.34677055 0.4279101 -0.22579654 -0.19729331 -0.22801909 0.36893475 0.65520436 0.61122155 0.12890646 0.047383286 -0.4197608 -0.48984396 -0.35246083 0.0063243094 0.037618376 0.29792637 -0.6418866 -0.24360704 0.47317174 -0.07876331 0.15038788 0.18146971 -0.53119206 0.19441505 -0.4005369 -0.35835004 0.7600827 0.038842387 0.0074009546 0.15523082 0.18227784 -0.48407796 -0.45049754 0.13375124 0.039097454 0.42676434 -0.41567755 0.25549716 0.34480843 -0.17495036 0.19591625 0.12254375 -0.01122367 0.24415338 0.36250997 0.600939
456d1969e074fa0e62db6c6d6ad8b162 0.341507 -0.004638225 -0.24616913 -0.3508306 0.01619687 0.11986272 0.20056729 -0.14864762 0.55154234 0.11937911 0.49880236 0.07521641 -0.10304856 -0.49842533 0.36216888 -0.34551978 -0.26152256 -0.3500539 0.26807964 0.8643105 -0.9101902 -0.18233718 0.13596344 0.3481484 -0.35640365 0.5972132 0.169121 0.19599807 -0.13509028 -0.1893873 -0.67308056 -0.75305337 0.2936914 0.6828365 -0.0390945 -0.1405553 0.16872208 -0.40591288 0.31499362 0.11743779 0.333493 -0.48432028 -0.94447184 -0.34445834 0.08222815 -0.13996828 -0.11666753 -0.23804279 0.72633266 0.088247776 0.29700094 0.17065975 0.2524249 -0.47544163 0.4925199 0.68586963 -0.24511965 -0.21079463 0.016697805 -0.030481702 0.17648454 -0.6886509 0.39876258 -0.15983033
cad0241670c5be08a54c5f82d26b095d 0.6370457 -0.60797817 -0.758363 -0.589379 0.6581884 0.028676642 0.5261353 -0.89002794 0.28625828 -0.38632554 0.12557809 -0.21242955 0.5671595 0.075595275 0.9512297 -0.19764303 -0.1181609 -0.0017822016 0.60082686 -0.060604975 -0.4663151 -0.5221702 -0.013809915 0.1539415 0.7103974 0.42209792 -0.040301617 -0.033816304 0.6363666 -0.13214703 -0.16076857 0.4399634 -0.55316967 -0.43007585 0.13529836 -0.32195538 0.44078088 -0.4993312 -0.21664335 -0.19270845 0.14704287 0.12322694 -0.5847943 -0.046258572 0.3983289 0.21141957 -0.040203076 -0.1788332 0.41339132 0.13006473 -0.0472068 0.28268403 -0.6811919 -0.18705906 0.15312152 0.20869875 0.51800436 -0.15915 0.19606172 0.27439848 -0.37964496 0.107348315 -0.353024 0.36295596
fdb48c66397ecbc7aafa60bf38adcd61 0.07288254 0.38965723 -0.76421595 -0.5555775 0.5178249 0.24508078 0.008806325 0.025340298 -0.119959496 0.61004496 -0.66538626 -0.7397962 0.07169169 -0.5953447 0.0037488814 0.19558792 0.00039769246 0.0789305 0.30103832 0.2965827 -0.30697662 -0.14463107 -0.42900425 -0.2431939 -0.1763656 0.0859827 0.12435137 -0.41558304 -0.095825575 -0.2663237 -0.28800464 0.2215579 -0.1184391 0.64325374 -0.9417146 -0.75407475 0.40359348 0.17836715 -0.20686764 0.4412709 -0.103596285 -0.49926645 -0.8872986 0.49198514 -0.18484183 -0.12723492 0.0093987705 -0.2955254 0.85768723 0.21789213 -0.09627065 0.031554926 0.10005549 -0.5665674 0.023515038 0.14205244 0.24040388 0.29670346 0.39251512 -0.5353993 -0.2107205 -0.044836085 0.55602676 -0.19080293
380aa6d2305b9bc85dbdc539b1861cb8 0.23163632 -0.0173274 -0.21571395 -1.165727 0.19133975 -0.06233715 0.09360884 -0.41978505 -0.11591967 0.36996347 -0.51813924 -0.2450179 0.37596464 0.18469082 0.007175429 0.26415825 0.135323 -0.11098929 -0.33969328 -0.14825031 -0.4248031 -0.56988716 -0.019773602 0.15844765 -0.0021358256 -0.03954498 0.3263505 0.24217884 0.5236165 0.2559745 -1.0736796 -0.21026006 -0.48816547 -0.048951287 -0.13361481 0.2078758 -0.25319365 -0.22381541 -0.39515752 -0.20358285 -0.33939442 0.10268954 -0.7253261 0.56868756 0.28813946 -0.16262205 0.34024516 0.69138074 0.42907947 -0.15075688 -0.048958097 -0.14977416 0.14004266 0.42099848 -0.27611214 0.23196523 0.0060794633 0.29694918 -0.071837 0.31002557 0.01086637 -0.090709195 0.07919376 0.13052654
bb6a682c8d699f3e39d094d174bc1bd9 0.13183148 0.16321585 -0.23098496 -0.1516189 0.20943058 0.2786449 0.39429787 -0.25750002 -0.44272602 0.2091587 0.30705696 0.09151532 0.21978445 -0.20056063 0.24771489 -0.27937365 -0.82391155 0.455183 -0.32726055 0.6342113 -0.7042052 -0.74933255 0.1138908 -0.003796434 -0.12213841 0.19640182 0.30669993 0.1602052 -0.017351769 -0.82174176 -0.64116484 -0.0018245823 -0.54830545 0.32320178 -0.44840947 -0.33654127 0.69080305 -0.2496506 0.104893364 -0.06645707 0.66892034 0.1644493 -0.7425884 0.5543221 0.15802254 -0.30340448 -0.015601081 0.07604991 -0.3473125 -0.36969337 0.39007485 0.46070945 -0.27707288 0.5482412 0.0381803 0.5128236 0.4580468 0.5602346 0.0062108818 -0.34898984 0.7254404 0.11726006 -0.13154334 -0.38088804
b1e59123c3f3d102585b1db475197f82 0.774943 0.2655469 0.035131983 -0.42928204 0.1752584 0.364884 0.49087685 -0.016544785 -0.22105415 0.62390673 -0.20046264 -0.09163632 -0.18772823 0.48335975 0.12882672 0.5703026 -0.53282243 -0.44436994 -0.49460903 -0.11174205 -0.16917259 -0.18387108 0.20810704 0.27448088 0.40696472 0.35150856 -0.34145835 0.56494087 0.31715807 0.31252307 -1.1032999 0.20716517 -0.14395918 0.085550345 0.19926183 -0.60074306 -0.2838693 -0.24926537 0.3301336 0.3085277 0.03963608 -0.00861814 -0.83517957 -0.28864604 0.251684 -0.20413868 -0.17245457 -0.24812621 0.0890478 -0.082470976 0.20352826 0.14561003 -0.89431053 -0.17874232 0.4096686 0.1480519 0.3859921 0.22576208 0.6243261 -0.42258778 -0.12087975 0.397348 0.045480546 -0.0808882
114567a79d724d53beb3908e8f03fe01 -0.38298333 -0.19101565 0.22050191 -0.9421042 0.60567695 0.23082411 0.10829177 0.018958056 -0.4751948 0.93542844 -0.5199575 -0.73205477 -0.071199685 0.2115899 0.17963469 0.14449322 0.54278773 -0.21266025 -0.20202349 0.5337661 0.107161924 -0.35101026 0.12182521 -0.013155657 0.12056459 0.27437323 -0.020268664 0.36032322 -0.2305822 -0.3655595 -0.22373773 -0.42088184 -0.05820546 0.040816218 0.027575241 -0.7190297 -0.040569093 -0.01721675 0.19736204 -0.2870562 -0.8025574 0.23943791 -0.16601835 -0.22826827 0.20111331 -0.30983654 -0.27725542 0.07546202 0.21435662 -0.7174876 -0.49000067 0.4419092 -0.14689797 0.12258765 0.07702281 0.55798054 -0.14052851 -0.11752737 0.21228549 0.1743409 0.21207254 -0.034505226 0.43265626 0.090295024
b14899611a427d88cb0283c91fb6e6d7 0.6305854 -0.08692623 -0.1357604 -0.8459438 0.26270616 -0.4320386 -0.2992001 -0.7678228 0.14163867 0.15827136 0.14456189 0.4723533 0.086607486 0.30604172 0.00893685 -0.2669398 0.31224558 -0.32943505 -0.3045821 0.34583688 -0.3702213 -0.7655148 0.258616 0.14617102 -0.2280899 0.45456377 0.033076096 0.24445866 -0.40206942 0.04719887 -0.5807872 0.22665906 0.63918674 0.34245244 -0.9097291 0.07741139 0.34380722 -0.40939102 0.18045267 -0.620813 0.7779021 0.13046743 -0.13487662 -0.3787046 0.5651018 0.09528328 -0.08587626 -0.122817196 0.08332868 0.41354957 0.20438543 0.062397055 -0.17449674 -0.0070488816 -0.20538974 0.38805524 0.19960557 0.1783265 -0.2965794 0.15112816 0.78785175 -0.4921856 0.5004672 0.09949703
6e37c9fd38860595c7938398d031d151 -0.12184168 -0.08927224 0.7920649 -0.4115373 0.523929 0.21364503 0.54881567 -0.15903744 0.21209778 0.29745248 -0.40828577 -0.6906838 0.1446732 0.20228076 0.3493941 0.12575795 -0.15167071 -0.56884766 -0.0385418 0.35596168 -0.6328185 0.058241338 0.31227177 0.2288384 0.07806209 0.39186418 0.38716394 -0.41470852 0.39067727 -0.43758258 -0.9995118 0.291917 -0.3565599 0.01085925 0.30927953 -0.42428052 -0.10044626 0.17556016 -0.01157504 -0.24028532 -0.4345235 0.1987407 -0.08780254 -0.50441754 0.2468544 -0.6367394 -0.13320339 -0.31111118 0.91559124 0.13620308 -0.29274675 -0.4320028 0.22413504 -0.60793805 0.26773202 -0.19353977 0.18441635 -0.056357827 0.60894823 0.28806838 0.085054405 -0.34234682 -0.032513548 0.58919245
78ea7668c6d7638f60f9eae6019333da 0.40085897 0.14322382 -0.11491427 -0.3813905 0.34779245 0.15779229 0.25188762 0.08682268 0.4862777 0.17655762 0.13041909 -0.5155074 0.02538525 0.18785271 0.9754374 -0.7565951 -0.0934187 -0.5517465 0.38050014 0.52181 -0.825542 -0.53341293 -0.082617916 0.15456417 -0.057489675 0.114163406 -0.2598882 0.10379988 0.14549533 0.03818888 -0.86198884 -0.33808395 -0.5438662 0.2340392 0.028433107 0.36420688 0.22653057 -0.25804597 -0.15498179 -0.20404929 0.48180172 -0.29632598 -0.95106167 -0.65351576 -0.40141752 0.15395363 -0.13303721 -0.2472992 -0.09397736 -0.2037981 0.76992625 0.008534559 0.4076666 0.24855615 0.25291753 0.1552044 -0.5048463 -0.56357795 0.5198074 -0.1850288 0.0012204675 -0.37230423 -0.29450956 -0.195488
ddbea2285bfb928da26945b2b4242448 -0.00786861 -0.10807558 -0.37528852 -0.16505556 -0.06816666 -0.485835 0.44248027 0.08408096 0.5788237 -0.0043357923 -0.20837714 -0.49256632 -0.3114425 0.3755686 0.32873493 -0.15718943 -0.28154102 -0.31770146 0.21396674 0.3720648 -0.16662897 -0.48630756 0.22422299 0.57367265 0.0370633 0.29091308 0.2452158 -0.32022133 0.24549434 0.06003775 -0.15196748 -0.01925272 -0.24017671 0.1925357 -0.5052633 -0.2824793 0.6947523 0.34221286 -0.7977779 0.1950074 -0.11592418 0.20751962 -0.84986 0.22654773 0.7247973 0.23933703 -0.2546357 -0.09394644 0.65474266 0.08360927 0.34901384 -0.58949184 -0.52407134 0.4965163 0.31956905 0.118215 0.7632102 0.62017745 -0.025765266 -0.27385065 0.14766449 -0.92686963 0.16217475 0.061853584
e7843f2da3d8228e83c95dbf7649182e 0.09152477 -0.16314468 -0.58468056 -0.050253376 0.4357691 -0.25917134 0.22260743 -0.628496 0.03277908 -0.2902067 -0.2571458 -0.71518874 0.18283412 -0.17410614 0.8598134 0.088580206 0.24696489 -0.12008931 -0.14075911 0.27877638 -0.53803504 -0.05515299 0.020656176 0.9077777 0.37773922 0.2182871 -0.09482729 0.034162827 -0.32005215 -0.42747265 -0.41227427 -0.26707715 -0.6031063 0.39658895 0.14015706 -0.6443441 0.14696409 -1.0315882 0.05032651 0.11891064 0.22389273 -0.72897637 0.012905337 -0.0038650858 0.48377398 0.070444874 0.16260006 -0.2012531 0.39810857 -0.26415288 -0.8002845 0.0019783073 -0.42787477 0.3828796 -0.27582732 0.3346472 -0.042877544 0.16827318 -0.073751636 -0.020643245 0.38445333 0.38547048 0.53381985 -0.41935834
017bc97a420e3a3738ecafb6f7bed4b7 0.7541243 0.065083325 -0.53375113 -0.18152452 0.64212096 0.16255163 0.04779632 -0.49696088 0.2840886 0.06723704 -0.13310899 -0.2718605 0.20813201 -0.51923037 0.8248078 -0.17994031 -0.02394219 -0.5576295 -0.26737347 0.18221025 -0.26069647 -0.32316768 -0.08924999 0.13516702 0.53922534 0.6109523 0.96299964 0.21393225 0.05510777 0.14626044 -0.10906431 0.11898091 -0.34085792 0.4832375 -0.106213115 0.056278534 0.40924525 -0.13236065 0.55907893 0.013268371 0.74272346 -0.05039627 -0.40392634 -0.19376269 -0.075661786 0.3481486 0.4857852 -0.3870788 0.7858044 0.009049277 0.66668904 0.55641377 -0.16827598 -0.38374153 0.0006326304 -0.09462136 0.89034736 -0.23820281 0.566517 -0.43163636 0.17688984 0.25465915 0.060979426 0.23212387
946dc9b610ca9d3e07def3ce6f098bf2 0.57034755 0.5571248 -0.1413343 0.27885902 0.08353738 0.040222537 0.11197552 0.012447224 0.20799376 0.028464396 0.3036385 -1.2048445 0.22332178 -0.21635404 0.3296081 -0.18997717 -0.24868336 -0.06958812 -0.08614285 -0.36604097 -0.41333595 -0.42965943 0.06330278 -0.04662133 0.33485007 0.8966796 0.35708377 -0.7274202 0.11731044 -0.42863673 -0.024270978 -0.12214538 -0.30914247 0.9810907 -0.13623473 -0.46994177 0.52267367 -0.3663875 -0.6107271 0.45099965 -0.026372783 0.28155646 -0.27726954 0.08651941 0.4178118 -0.6562649 0.06323027 -0.3120435 -0.1671515 -0.004551385 0.6172143 -0.49183187 -0.44596648 -0.38640326 0.14568348 -0.031009745 0.08139057 -0.3148328 0.52780277 -0.009546573 0.7195717 -0.2558757 -0.22613358 0.08334837
cd8df8f4e420fd01a11072a2dc45acee 0.14491747 0.16430789 0.13841833 -0.47890377 0.57105917 0.581268 -0.36773637 -0.20044295 0.3834784 0.04403029 -0.5620801 -0.15979484 0.044649996 -0.3940163 -0.10212607 0.43525365 0.34216565 0.09163012 -0.39312688 0.5901993 0.13819064 -0.5941474 -0.12588322 -0.20907182 -0.49733233 0.57480717 0.42461258 -0.53674304 0.48663723 0.0009922491 -0.4346259 -0.10190743 -0.3436418 0.3429398 -0.38666025 -0.5202646 0.24425681 -0.50893444 -0.23849384 -0.20020086 -0.09134631 0.08055101 -0.3871407 -0.28888723 0.9550351 0.20060833 -0.46654823 0.41720536 0.029193677 0.20668785 -0.21935296 -0.55927074 -0.18132994 -0.12125123 -0.4643041 -0.44958013 0.029147908 0.42880937 0.14432052 -0.02158968 0.39416006 0.5544624 0.52161014 0.12853701
fa6474259949dd31ada70537d40e5364 0.1681767 -0.12493527 0.038073357 -0.25762436 -0.3494612 0.17928205 0.14549585 -0.48503882 -0.06574789 0.33852214 -0.013126206 -0.6443541 0.18177989 -0.39846382 0.25235355 -0.12518461 -0.21743524 -0.14340694 0.075585365 0.16519842 -0.39084888 -0.91689575 0.6739542 0.17752378 1.1912398 0.59396994 0.19895577 -0.10141573 0.21644667 -0.22212914 -0.372779 0.49109226 -0.09715793 -0.20932777 -0.21528162 0.3808867 0.65376407 -0.09994232 -0.29685196 -0.20701002 -0.23442027 -0.18521242 0.08967958 0.2983238 -0.069344066 0.03809354 -0.005927976 -0.07793751 0.5200187 0.5070783 0.2794728 0.18573163 0.57672435 0.6068209 0.33942467 0.4353106 0.47253305 0.29154462 -0.0840042 0.31021315 0.06359172 -0.387462 0.5627305 0.40486413
3dc04cdada81359f56519f7b7653e27b 0.3668285 0.3905968 -0.36727563 -0.4076656 0.37446085 -0.49506065 0.6571036 0.42484474 0.30389225 0.25556228 -0.6486989 -0.4546656 0.34414485 -0.03008232 0.26776558 -0.18313636 -0.33503172 0.24007107 -0.2031541 0.68042314 0.18562886 -0.25524235 0.15521014 0.20042694 -0.39712128 0.57853496 0.06881868 -0.4781297 -0.42225677 -0.64377016 -0.11888244 0.08755872 -0.009019314 0.036410924 0.12513188 -0.89317954 0.81494486 -0.4318845 -0.14528784 0.3088269 -0.22359237 0.45817426 0.019567395 -0.50100946 0.50824106 -0.19517982 0.13482746 -0.0674377 -0.3070852 -0.5603893 -0.24096394 -0.050778564 -0.6769724 0.091043666 0.525406 0.7597966 0.02543453 0.09504249 0.09903274 0.2633058 0.80813426 0.070553906 0.2512222 0.064427316
0f498b40e84601f4270f2edf651c89d0 0.19560936 0.0817249 -0.3822678 -0.35283503 0.5894218 -0.20827706 -0.14118983 -0.29881608 -0.028315712 0.59333545 0.11505903 -0.5828736 0.33189234 0.57041377 0.4362633 0.24940282 -0.22273134 0.20221253 0.3768037 0.56416065 -0.14343743 -0.8786883 -0.266829 -0.11180454 0.066078596 0.35611945 -0.014294987 -0.23582567 -0.21632841 0.39328098 -0.49603006 -0.14715464 -0.10450034 -0.026143534 -0.15181296 -0.33599982 0.6185311 0.13227397 -0.24824555 0.7420019 0.029738687 -0.30321363 -0.41947445 0.36655155 0.31780323 -0.08955626 0.39353135 -0.31469974 0.9370205 -0.09855996 -0.17161193 0.7456188 -0.10862013 -0.829611 0.20255548 0.09108454 0.13269848 -0.25193405 1.0350615 -0.4616538 0.5931093 -0.27705455 0.23468556 0.19085783
4ade2b68c745daf369ee492ec1084da5 0.6441718 0.26600826 -0.16139469 -0.43146682 -0.12381365 0.26076406 0.53511006 -0.10285386 0.5248799 0.60089177 -0.795433 -0.7505154 -0.13147923 0.23925525 0.39769673 -0.23429166 0.2928623 -0.3075712 -0.05723954 -0.6016393 0.45666453 -0.071090385 0.5806155 -0.6310046 0.364325 0.26894683 0.070048206 0.15763131 0.1311203 -0.10624125 -0.40547514 0.2246122 0.15416372 -0.47821897 -0.51846075 -0.5247568 0.09436787 -0.4190357 -0.29299334 -0.25124907 -0.44924104 -0.16870335 -0.3776952 -0.5627226 0.4356478 -0.5197373 -0.53617483 0.14479443 0.18142474 -0.052830208 0.17070457 0.29758215 -0.5368539 -0.5800025 -0.40519318 0.57761997 0.04759173 0.22254887 0.367611 -0.16657135 0.01526806 0.13289148 0.08868338 0.05744572
a60703a4e4c60a35571028c662829a10 0.40572238 0.012804182 -0.12704785 -0.8054404 -0.11754534 0.05774026 -0.49467182 -0.43765515 0.04436511 0.22457764 -0.36667284 0.07970321 0.37477407 -0.14619675 -0.022676319 0.19029726 -0.2541299 -0.38425902 -0.47622544 0.66049767 -0.5026006 -0.5466701 0.12233529 0.015964694 0.2736771 -0.15545955 0.01688107 -0.35074797 -0.47523677 0.028785238 -0.12232524 0.47926068 -0.31770757 0.09825917 -0.02988033 -0.26598167 0.50811213 0.14613272 -0.14025612 0.51957995 -0.6403991 0.71599305 -0.91308445 0.12789005 0.6449674 -0.09530448 -0.1466687 -0.1687166 0.5311092 0.41456017 0.24480975 -0.07584223 -0.36535096 -0.09924189 0.29243392 0.26194072 0.45410964 0.0591807 0.1172219 0.13639462 0.0005518809 -0.41311055 0.1244348 -0.29634297
283d9e990c96a7e2c9833d7050fcc9c8 0.3208911 -0.29884303 0.061998613 -0.5386897 -0.043959755 0.36210656 -0.1592371 -0.10539825 0.13626182 0.64136535 -0.13813967 -0.14163382 0.045469545 -0.5584884 -0.05860215 -0.3373604 0.11597023 0.24698867 0.31966025 0.53008294 -0.30270758 -0.720162 0.38602728 -0.07007087 0.22983114 0.734987 0.33790854 -0.12688714 0.301103 -0.5229719 -0.7982722 -0.12847275 0.4400611 -0.0043700016 -0.6251411 -0.5337655 0.59959394 -0.35598534 -0.39204502 -0.17687389 -0.119155094 0.09493754 0.12829119 -0.15613802 -0.49465713 -0.25970164 -0.8275166 0.23470879 0.35155088 0.12004467 0.2907984 0.14325032 0.14182658 0.07683373 0.497747 0.68555105 -0.48217702 0.32930136 -0.20425454 0.21127403 -0.5316211 -0.33788446 0.57742 0.40620735
740b554f62768dea585322c8b61a5ecf 0.6710401 0.39081612 0.045039296 -0.46608526 0.2512939 0.17961478 -0.06890475 -0.16348332 -0.5370487 1.1466744 -0.4870056 -0.29672414 0.15792516 0.32320154 0.5138242 -0.51588625 -0.49131057 -0.1946285 -0.10409262 0.7612486 -0.012770666 -0.27318773 -0.08804944 -0.15099964 -0.24409297 0.29036778 0.48762175 -0.538835 -0.28439254 0.36265013 -0.5255992 0.33776903 -0.41091612 0.020448502 -0.1875225 -0.38224065 0.6617287 0.25561142 0.11766781 -0.14791013 -0.24299683 -0.2925669 0.04389209 0.74480045 0.22428545 0.13418937 -0.24384649 -0.33927137 0.59010357 -0.20872214 -0.015318511 0.09352134 0.526733 0.46784467 -0.12468662 0.6465244 0.0073192026 0.09987236 0.5878382 -0.4474211 0.43625686 -0.39165357 0.2716675 0.115651034
facbaef85f3ad663fee14b6c3491cf9c -0.2729767 0.3491475 0.09922733 -1.156511 0.23721582 0.01332866 -0.28382802 -0.31699276 0.8319775 -0.12221507 -0.11819066 -0.36054534 0.3687779 -0.20644182 -0.18059435 0.2595337 0.04353409 0.16144925 0.16170222 0.40178642 -0.16428557 -0.34141707 0.13205455 0.047906477 -0.069262505 0.5584989 0.18617706 0.026917618 0.47294912 -0.2351305 -0.6503288 0.0814414 0.44589007 -0.43449858 -0.25845206 -0.2802217 0.23180513 -0.96181804 0.62700665 -0.851097 0.015923545 0.23480828 -0.20682842 0.18327156 0.66868013 0.11312987 -0.4205614 0.40747 0.29158995 -0.29192346 -0.6729132 -0.22549504 0.067110464 0.13768218 0.19356099 0.15138696 0.2079339 -0.39791477 0.41630173 0.36981985 0.3701075 0.26499438 -0.18999062 -0.16764931
1c82d373e7badd547959397e4e60e639 -0.07207277 0.3801362 -0.71567106 -0.08211938 0.077235855 -0.015763234 0.38319007 0.7234838 0.96953326 0.43250757 -0.7437315 -0.42538103 0.11262568 0.07520473 0.026219752 -0.31053656 -0.18968485 -0.47574362 -0.14472984 0.3783722 -0.023762133 -0.44076228 -0.77288866 0.26290703 -0.17355886 0.3647878 -0.0020818238 -0.34313217 -0.51080257 -0.71650463 -0.7449948 0.16827945 -0.3731857 0.54164225 -0.17535247 -0.40603256 0.48962975 -0.5047127 0.47684863 0.09708903 -0.44204322 0.40056702 -0.07214994 -0.28286842 0.08749581 -0.4797682 -0.014297164 -0.26893646 0.26586902 0.4980462 0.30601436 -0.2708317 -0.15600972 0.24141404 -0.43614426 0.20110779 -0.35835385 0.13444012 0.95237213 -0.23081782 0.28951004 0.24017578 0.3116441 -0.22302574
9d42e6474492427447d8da7f9d2c9f29 -0.3513996 -0.16415247 0.15742071 -0.531487 -0.2802733 0.04330194 0.040400855 -0.3268562 -0.59532905 0.47636172 -1.0971084 -0.22176771 0.027630864 -0.11136952 0.45958015 0.28928223 -0.04343847 -0.24879411 -0.20699923 0.40643445 -0.038352996 -0.40083656 0.17278354 0.5209641 0.71963936 0.2671316 0.042791672 0.21353891 -0.28103194 -0.20338228 -0.45004052 0.16030131 -0.079983376 -0.48989677 -0.3462765 -0.227961 -0.13702051 0.037401445 -0.10570501 -0.2536214 -0.6745683 -0.11832851 -0.33871916 -0.09655674 0.16936056 0.013145143 -0.30670738 -0.28580412 0.21483335 -0.26652437 0.42236817 0.56152475 -0.40621978 0.4421463 -0.33260664 0.008535242 0.34152025 0.9246978 -0.19257872 0.13530655 -0.18877667 -0.2976397 0.35366946 -0.07434679
8d49e614f2922992f2f51de0dd68acbd 0.52227294 0.83181316 -0.24624908 -0.2090257 0.5605472 -0.107175566 0.8567473 -0.0064542596 -0.074447095 7.079264e-05 -0.17784786 -0.46970758 -0.18386315 -0.13104768 0.32078966 -0.9099231 0.038223885 0.08546969 -0.31002706 0.016457476 -0.26244083 -0.49048236 -0.6416751 -0.053990617 0.67560905 0.6536388 0.40229073 -0.12811838 0.40562642 -0.37524772 0.015016194 -0.3728456 0.45596355 0.06410478 -0.39030695 -0.8110107 0.52979755 -0.15106907 -0.09431619 -0.07622531 -0.17847688 -0.07046133 0.14308864 -0.26933944 0.21778789 -0.3369538 -0.48457083 0.27181512 -0.20732468 0.008852827 0.33867386 -0.10514006 -0.07753003 0.15970857 0.97370297 0.29661116 0.84400994 -0.5314594 0.2546997 -0.21119325 0.07521607 -0.021428801 0.036329485 0.52054524
dcd95287c005bdd1a484ff932d3521ae 0.58625835 0.09574702 -0.31280738 -0.5121335 0.3334189 0.020023156 -0.049908455 -0.7878767 -0.4654529 0.61894655 -0.18616574 -0.4341951 -0.44855928 0.062641256 0.42801443 0.23198289 -0.5854322 0.11323901 0.39800724 0.20185103 -0.39354053 -0.30395484 -0.8474801 -0.17078015 0.20011915 0.25102988 0.27795517 0.25575408 -0.17508332 -0.178079 -1.0438889 0.022524491 -0.23768458 0.80622315 -0.95263475 -0.018494189 0.6361337 0.06547309 -0.091699995 0.6840359 0.07801149 0.5934293 -0.31429896 -0.47964677 0.15466844 0.35966077 -0.14424697 -0.10634072 -0.457031 0.13355526 -0.060638405 -0.019642418 -0.08888485 0.10015171 0.23655403 0.738208 0.20039591 0.02606349 0.08635213 0.12937467 -0.11147694 -0.22998068 0.13439275 -0.5387316
7f808ba38274153abb664e323c7ee640 -0.6279041 0.6754845 0.44261923 -0.018783752 0.9679055 0.16049899 -0.112961784 0.18051925 0.18259579 -0.3611412 0.12320455 -1.0506784 0.02940385 0.038508695 0.46305454 0.10931646 0.0008395301 0.25197378 -0.09937027 0.22420953 0.031608786 -0.04287882 0.27923912 0.18002868 0.775604 0.5628609 -0.3893519 0.43601185 0.40269238 -0.4400412 -0.3973439 -0.088857144 -0.6002464 -0.056729574 -0.43769905 -0.7860606 0.3605881 -4.8800575e-05 -0.22854576 -0.22824189 -0.23452996 -0.4290622 -0.1552838 -0.132894 0.4642545 -0.62564874 -0.13046692 -0.065127574 0.41341573 0.17938232 0.03829353 0.06513933 -0.8433026 0.035923295 -0.12674174 -0.0907633 0.197241 0.1959798 0.20154485 0.027034493 0.3086459 -0.0013845573 0.14471886 -0.30540794
8125d9f6f5d8ffa218e8d43f10bb9502 -0.10419464 0.05076953 0.21225823 -0.17620274 -0.27106926 0.076338306 -0.14559938 -0.5174909 -0.4709054 0.6653814 -0.6528538 -0.3563525 0.10452865 0.1691215 0.49874324 0.4816017 0.1042488 0.041690707 -0.18323818 0.16020603 -0.08969505 -0.7827553 0.10785765 0.42483273 0.68827957 0.5644752 -0.10827665 0.15617633 -0.48565033 -0.14487603 -0.6006757 0.30693957 -0.2555612 -0.54352885 -0.25156388 -0.11645334 -0.21429785 -0.26655307 -0.22376503 0.02035258 -0.56552345 -0.18450895 -0.14681531 -0.26309797 0.13425702 0.09195768 -0.25327095 -0.1937179 0.20411009 -0.56760955 0.22197875 0.8490264 -0.19073504 0.349348 -0.16220139 0.15702379 0.10191239 0.66042435 0.044856444 -0.15334025 -0.11117055 -0.21316996 0.18742946 0.23257482
44fc9c4f2b0bb5441358dcb381fb9dd6 0.25586683 0.0038141226 0.2950515 -0.47902894 0.46554887 -0.20534085 -0.2872013 -0.19562271 -0.2768982 0.49500257 -0.73303854 -0.15716566 0.40469623 -0.17160179 -0.29623598 0.02499907 -0.07776898 -0.23116167 -0.42446488 0.07320886 -0.942871 -0.27233425 -0.1998091 0.084723696 0.33697397 0.13957681 0.8750372 0.64206475 0.38529763 0.010283048 -0.20146434 -0.42531365 -0.60765755 -0.092972785 0.25198823 -0.12044404 0.21023953 -0.28042564 0.05854063 0.058733758 -0.08149634 0.09407983 -0.6666713 -0.25244343 0.5324861 0.012136277 -0.4944643 -0.6765029 -0.05183127 0.0073458455 0.4187665 0.38433474 -0.117947 0.19852903 0.017408231 0.0824396 -0.26704207 0.27868634 0.6708199 0.689717 0.11110496 0.17423174 -0.251033 -0.5808936
b6197d24f77e163e36233c32600f58a1 0.36201245 -0.07365213 -0.0045891306 -0.21462105 0.6143179 0.60921663 -0.45295182 0.13803117 -0.19542517 1.0516181 -0.036190115 -0.31070286 0.16102622 -0.5145067 0.5168222 0.42287657 -0.10599829 0.34273255 0.104650386 0.41429526 -0.1602509 -0.012214429 0.22299615 -0.1581106 0.24939115 0.9740242 -0.39274165 0.17469434 0.26760003 -0.024766324 -0.597433 -0.110964596 -0.1572303 0.36519346 -0.39645573 0.122072294 -0.18135169 0.0313045 0.86889595 -0.5776495 0.03150706 0.34406066 -0.62713885 -0.08951308 0.49170515 -0.22471964 -0.46884212 -0.43427193 -0.18907225 0.092331626 0.3267 -0.23584035 -0.2865084 -0.049758945 0.09042484 0.26911843 -0.019302128 0.60659117 0.9048251 0.36283845 0.01675053 0.13865373 -0.07718215 -0.6490166
93f2ba56a668571e6716b3ea89375e24 0.38958892 0.016278481 0.96849364 -0.2114692 0.7087972 -0.3291666 -0.37097484 0.14389484 0.63926774 0.6761416 -0.4131995 -0.3803176 -0.023857389 -0.19500919 0.2271626 0.1581411 -0.17866121 -0.27579144 0.11091443 -0.13758212 0.059980586 -0.57820785 0.10993138 -0.12137429 0.79901683 0.64903295 0.20446908 0.5210305 0.23834658 -0.29684103 -0.34880763 0.38259122 -0.14320439 0.0042410702 -0.4418462 -0.058044896 0.192451 -0.21209611 0.0037336152 0.11060018 -0.041066434 0.08854413 -0.1921497 0.10222214 0.57347465 0.6440219 -0.44852892 -0.31881228 0.39605856 -0.40593004 0.19537605 -0.33936733 -0.5904123 0.052381247 -0.11078742 -0.07369616 0.5394733 0.6270359 0.016441653 0.26611695 -0.25929418 -0.08030041 0.0025513982 0.6002901
1c2882a666f66e75529b0264d82404e6 0.41210884 -0.29801324 -0.40668273 -0.37015978 0.08659862 -0.010870272 -0.6045902 -0.5876402 0.16106533 0.7335761 0.3306526 -0.21606556 0.47904044 0.27329558 0.19608921 -0.31328347 0.08952402 -0.19057153 -0.16596031 0.2211918 -0.25241563 -0.40634507 0.29115292 -0.0642927 1.0960754 -0.11021919 0.13840757 -0.44494122 -0.39749786 -0.49898532 -0.6301159 -0.07808172 -0.19139364 0.4554747 0.04871194 -0.11589029 0.27119273 -0.3209775 -0.18887909 -0.34739727 -0.20906916 0.28885916 0.116790645 -0.3666847 0.32682657 -0.57655376 -0.6131735 -0.08116539 -0.16950385 -0.8987843 -0.32671264 0.14637607 -0.27734154 0.026010755 0.10396156 0.10187145 0.57751137 -0.78031826 0.64320415 0.20913418 0.52792215 -0.4987821 -0.29924548 -0.13951336
896f145421c4f39485cef48f3932479e 0.6320199 -0.58985204 0.7273007 -0.5899699 -0.20260772 0.09586951 0.2184528 -0.3983636 0.15838256 0.4951171 -0.21380848 -0.1441037 -0.16380261 -0.010371348 0.13350794 0.028604401 -0.1901609 -0.24961375 0.18213813 0.8184487 0.020819724 -0.7724338 -0.27842948 0.25224563 -0.20067967 -0.29272738 -0.13175091 0.599964 0.08115897 -0.29566178 -0.17866741 0.17043276 -0.2199826 0.048966255 -0.86653805 0.013226978 1.0319968 -0.55263734 -0.099837534 0.13363248 -0.11165175 0.03771126 -0.3960166 -0.17084846 0.9283024 -0.12049686 0.31195763 -0.09871539 0.30463314 0.53183496 0.1783524 0.47362137 -0.38192058 -0.3922438 -0.49323288 0.24918187 -0.2451612 0.48349947 0.5884666 -0.3181743 -0.17698342 -0.16087957 -0.13234484 -0.45574445
ab22c921b4d4b7e684106550623ec88f -0.42929766 0.07820463 -0.0014003481 -0.39645252 -0.02897322 -0.13673106 0.3551181 0.24759655 0.25883803 0.53201145 -1.0785881 -0.1571403 0.26681566 0.20173448 0.36036724 0.30540988 0.13317312 0.26582065 0.1296662 -0.5004747 -0.10020964 -0.5966371 0.11290839 -0.14609589 0.35494256 0.15943213 0.045967992 0.21553022 0.4118176 -0.7358293 -0.47446385 -0.033452045 0.501327 -0.21675968 0.1471677 -0.33407927 0.6472982 0.026910989 0.117522195 -0.4942604 -0.45689854 0.11812502 -0.5493755 0.48238474 0.8405886 -0.68745583 -0.60651886 -0.15486163 0.66216797 0.16347152 0.22995749 -0.3431499 -0.46960437 0.050427962 0.18411331 0.34895965 -0.09352875 0.46359667 0.16976543 0.20364043 -0.081953816 -0.43205047 0.15438968 0.028037962
28fceec90c7c6e5d9863545145e902f6 -0.011896577 -0.04625718 0.30758405 -0.4725951 0.74773806 -0.3468313 0.31466123 -0.23332216 0.25868973 0.48319545 -0.031015836 -0.10842245 -0.026130067 0.21117003 0.3312147 -0.39847618 0.47212794 -0.303923 0.48641676 0.20997678 -0.52342695 -0.84435827 0.13667662 -0.2149229 0.29552814 0.9010499 -0.12824027 0.0068963408 0.047880594 -0.2845481 -0.7166944 -0.022840265 0.104841426 -0.689501 0.053578213 0.17318243 0.9275973 -0.4045348 0.48674935 0.509496 -0.23878573 0.5375301 -0.2713267 -0.32094204 0.81001204 0.08320308 0.39154056 0.35533878 -0.02411773 -0.023916988 -0.0052092243 0.60990965 -0.14912789 -0.18489192 -0.27885833 0.33531615 -0.39104638 -0.5810565 -0.02424834 -0.32323664 -0.43127185 0.17858732 -0.20844115 -0.403883
d1dc706860752d8537c6fdfc97ed7d3f 0.41888005 0.049146384 -0.6462081 -0.9647726 -0.054896012 -0.2884569 0.49081913 0.2504821 0.017832618 1.0763551 -0.54421896 -0.044115435 0.31885612 -0.100940496 -0.31667084 -0.47898242 -0.071883634 -0.36960137 -0.7472865 0.30099168 0.05643624 -0.63021636 0.30228665 0.32374638 0.15773168 0.2938051 -0.06503755 -0.45187542 0.034272328 0.26004457 -0.6657105 -0.32467958 0.28975663 0.18222141 -0.36462605 0.013369 0.19267634 -0.29828352 0.04422529 0.6564673 -0.11078775 -0.27141196 -0.6374761 0.4211138 0.54563195 0.59211254 -0.15060993 0.28873527 0.18059541 -0.26825097 0.16615684 -0.014706128 0.24787837 0.35473493 0.42695758 -0.2334166 -0.42025155 -0.26523706 0.18937612 0.06774816 0.66825 -0.488705 0.42754826 0.002132896
76ececd3a860cc3463b07596459b6d18 0.7196373 0.24202006 0.029348757 -0.214754 0.94318074 0.21645784 0.30079368 -0.5349595 -0.6806188 0.45417026 -0.07964314 -0.1089921 -0.08906461 -0.070193715 0.1540006 -0.3393207 -0.15033391 -0.040802684 0.18225285 0.8820724 -0.4388444 -0.22199012 -0.33354267 0.6182197 0.029373713 0.8492744 -0.72874165 -0.31002834 -0.027814334 -0.5933298 -0.45643404 0.27721295 -0.15119982 0.09724357 -0.8601944 -0.04649225 0.20931938 0.5502763 0.016394982 -0.06065232 0.020194652 0.22626516 -0.48390806 -0.45385432 0.43305367 0.5500043 -0.5828368 0.0017108206 -0.061994623 0.002145652 -0.2415784 -0.7222665 -0.13652699 0.24246755 -0.12271802 0.2795912 -0.054015 -0.1675401 0.52776027 0.011913967 0.08917761 -0.008723296 0.51752645 0.38136345
4b4a453c32059377820679cf626e2b62 0.119996406 0.51265585 -0.27217627 0.056952465 0.6669943 -0.10181211 -0.7861169 -0.6666245 -0.03708033 0.11762376 -0.14804056 -1.0266823 -0.12638135 -0.08732002 0.8767049 -0.8735307 -0.3562264 -0.23347288 0.150606 0.27447906 -0.38850588 0.04922106 -0.18248893 -0.08365292 0.27453163 0.5903775 0.30572122 -0.24164857 0.12826137 -0.13219202 -0.33531058 -0.367121 -0.13342 0.36873534 -0.25933096 -0.21583362 0.41862845 -0.40741843 0.14749826 -0.5528516 -0.30584228 0.046558745 0.41854367 -0.24432647 -0.09948419 -0.66992116 -0.52141726 -0.37944454 0.02621021 -0.33991 0.030853901 -0.64648706 -0.23403761 0.24610917 -0.12638344 -0.20607536 0.5845841 -0.44251734 0.38010758 -0.3746962 0.654676 0.46101674 0.19678222 -0.06389204
caafee2589a4013a163b9e9cb4eb2143 0.19612601 0.2635099 -0.07706241 0.1263083 0.7769964 0.10993826 -0.09820929 -0.042019296 -0.08938464 0.5813689 -0.4303597 -0.4002772 -0.12520151 0.2971829 -0.22641349 0.3401145 0.1743043 -0.10720352 0.3084065 -0.30435914 -0.4017886 0.085400045 0.16987482 0.03660502 0.045200687 0.4542474 -0.52643704 0.71726483 0.5239626 -0.103992 -0.6791844 -0.37819722 -0.44114164 -0.2685926 -0.54375285 -0.5337553 0.07734377 -0.03555618 -0.050734643 0.05021794 0.08540097 -0.16475865 -1.080601 -0.102175444 0.5946453 -0.31958088 -0.046093315 0.039206382 -0.14106047 -0.61286044 -0.26556507 0.042567987 -0.115007855 0.06872311 0.07088891 0.46561792 0.5030875 0.9056407 0.41045263 0.31720498 0.38983458 -0.09253743 -0.057582125 0.2318562
ae05220c53eba842d37895f2dc947433 0.24825557 -0.61460996 -0.059832554 -0.7723967 0.024853442 -0.04767412 0.05447922 -0.09904251 -0.7117066 0.108488694 -0.04949387 -0.07070636 0.8027958 -0.16717087 -0.3644052 -0.07088491 -0.2203623 -0.0429618 -0.20488213 0.087002225 -0.14627546 -0.52238244 0.5286525 -0.018472787 0.5001729 0.6907201 0.08988583 -0.5915573 0.0003680655 -0.6745817 -0.4425164 0.1481227 0.046240136 0.26415762 -0.53959775 -0.76849407 0.40560064 0.37201464 -0.05424306 0.19566374 -0.4451646 0.25539747 -0.56998605 0.28280574 0.8667836 -0.3189237 0.19432482 0.17190109 -0.18780431 -0.033586353 0.5445268 0.009393451 0.1358781 -0.4650838 0.19128749 0.64494884 -0.056470916 -0.34954265 0.14192002 0.17283855 -0.17861483 -0.625437 0.45807067 0.41623732
7f16d16302d90e68f216971646dbaf15 0.06281603 -0.022180475 -0.81330603 -1.0009643 -0.19222564 0.44823864 -0.5951127 -0.25791973 -0.43727785 0.19663131 -0.49725267 -0.36877084 0.37734187 -0.12851964 0.5499825 -0.313445 0.0915587 -0.08565996 -0.20341526 1.0306948 -0.30473736 -0.53355545 0.042157862 -0.7356934 0.13201743 0.2974049 0.08163409 0.017675295 0.13569023 -0.581722 -0.038526338 0.29237276 -0.23356555 -0.3362737 0.07737763 -0.18394019 0.688651 -0.25888935 -0.08564174 0.22795954 -0.38252768 0.012679908 -0.31062728 0.039499428 0.48369256 0.55995554 -0.41983765 -0.05251499 0.11722659 0.15615639 -0.23685686 0.10524151 -0.35892555 -0.31440204 0.73814285 -0.11391955 -0.00849261 -0.14918762 0.4319101 0.0911165 0.124949165 -0.78022754 0.47410452 -0.0615244
03df2920ac001f76a06cea7851bdb2dc -0.14946797 0.24902862 0.27063605 -0.38390416 0.8063221 0.37787881 -0.36512622 -0.058541507 0.25278494 0.6683531 0.29424793 -0.55226105 0.29187912 -0.1479831 -0.36265424 -0.26593333 0.07810022 0.15225747 0.2782335 0.5081607 -0.75297874 0.078418985 0.37309054 -0.49176437 0.04142947 0.3485937 -0.2028042 -0.52779424 -0.312786 -0.017624715 -0.19319294 0.109404966 -0.64945567 0.10991666 -0.4340341 -0.494582 0.3276526 -0.43858954 -0.45722935 -0.029320436 -0.31195682 -0.7280074 0.10746387 0.27828586 0.2821649 -0.07378035 -0.6203968 -0.3893774 0.71435606 -0.24175237 -0.3150638 0.36310613 0.31345513 0.34718764 0.66294247 0.28484264 0.014242962 -0.18146577 0.6957684 -0.36195606 0.5984438 -0.068366885 0.35432312 -0.11487217
9df3774752b6fe3da3f75dc53e377fbc -0.3237279 0.23505346 -0.047423974 -0.24192229 -0.16655524 -0.24347112 -0.0996444 -0.20006497 -0.40439194 0.5437163 -0.5742966 -0.48712167 0.103513815 -0.24075936 0.3995058 0.2100423 0.320643 -0.16540019 -0.15272781 -0.29148197 -0.34733948 -0.18534392 0.21390992 0.82932657 0.40248084 0.25651604 -0.15584406 0.30609542 -0.14560226 0.19401579 -0.27686137 0.19449937 -0.36090264 -0.37717503 -0.7592939 -0.363187 -0.08707838 -0.33669442 -0.46512672 -0.08278114 -0.5773894 -0.20846732 -0.23346451 -0.29721293 0.2436617 -0.32587358 -0.26417753 -0.20673169 0.60145384 -0.14027075 0.39473674 0.8762056 -0.17709237 0.1259238 -0.18345141 0.09291822 0.26224875 0.69001687 0.13191043 0.15837306 -0.027502364 -0.02846914 0.26981354 0.320652
97de36c5beb41c8273e1af4ad29166b8 -0.20230202 0.17237556 0.17265736 -0.32081205 -0.33230138 -0.0043022423 -0.14637986 -0.02628327 -0.30686668 0.50177854 -1.0167869 -0.67397416 0.21592364 -0.12397084 0.31572688 0.14619616 0.14496177 0.020138191 0.0853766 -0.14854947 -0.27849922 -0.392129 -0.12938279 0.52816415 0.8649916 0.17905028 0.011503862 0.11638181 -0.61422294 -0.16033271 -0.51776296 0.3356661 0.045682132 -0.6250833 -0.32081687 -0.2608846 -0.09390566 -0.20645769 -0.14189832 0.047166783 -0.5068744 -0.03438672 -0.3926554 -0.03143413 0.035839085 0.001309145 -0.21418698 -0.119018294 0.57570356 -0.33417645 0.37991688 0.5985442 -0.5140796 0.4426553 -0.34759167 0.0013374469 0.18928441 0.72310513 0.15619902 -0.07185618 -0.19315422 -0.12412127 0.13673036 0.1925298
6b0ff9d2158052f70dde961a4b58c95c 0.04041691 -0.15464687 0.09803832 -0.62641805 0.40159118 -0.56090504 0.95884025 0.4813276 0.6277531 0.14758687 0.16368574 -0.34668258 -0.05785082 0.5633605 0.05877004 -0.2827105 -0.2880311 -0.19528028 0.60192484 -0.006212895 -0.52486396 -0.8181249 0.08144012 0.4488618 -0.02967598 -0.057364345 0.028288346 -0.15693988 0.2213232 -0.43700618 -0.4278144 -0.31295195 0.058766194 0.15675046 -1.1992518 -0.8851885 0.54695785 -0.516102 -0.4686513 0.1624246 -0.45282578 0.025494812 -0.21994916 0.38127998 0.40385583 -0.3749105 -0.27036104 -0.057623167 -0.0006238464 -0.613865 0.26414168 -0.51132715 -0.3688776 0.10161154 0.029043527 -0.0214137 0.12374241 -0.13296339 0.050738517 -0.19392851 -0.35296497 0.04684869 0.2852262 0.19446278
57a971a580e5c066d6227cc77dc81734 -0.23087822 -0.48430043 -0.85853165 -0.66784215 0.4001347 -0.39769718 0.04950883 -0.37115672 -0.4083516 0.35355783 -0.009056456 -0.370479 0.97096235 0.19483382 0.36109918 -0.58468974 -0.3836177 0.23593128 -0.117468745 0.6433021 -0.33230856 0.19270802 0.24823146 0.06582487 0.3350372 -0.11125111 0.19260362 0.07100403 -0.047666214 -0.36478466 -0.60176855 -0.23675896 -0.16309369 0.15194109 -0.5227805 -1.0558293 0.35488892 -0.40921006 -0.26317126 0.038079713 -0.39954203 0.06043345 0.22207147 -0.097192444 0.76524705 -0.25051087 -0.463157 -0.010822425 0.37044752 0.47409505 -0.17001952 -0.050486468 -0.12900707 -0.36997283 0.04212293 0.2517901 -0.5860801 -0.16515529 0.27594727 -0.17387499 0.08079406 -0.4700526 0.64043635 0.3774605
05e547efec4e5191635b9623fd92500c 0.6184132 0.51747805 0.107303746 -0.11729889 0.044212054 0.28933188 -0.15828393 -0.41500086 0.40421894 -0.025957933 -0.58759505 -0.33380648 0.6118198 0.57594013 0.18374561 -0.39696243 -0.5144937 -0.107481375 0.1916429 0.84343815 0.315746 -0.11096604 0.13715634 0.36773965 0.6419304 0.4667154 0.0009285365 -0.20781004 0.33998367 0.051432807 -0.3641619 0.5497298 0.22850601 0.089623176 -0.23453446 -0.131042 0.7079885 -0.7897969 -0.008705568 -0.39539137 -0.48402438 0.8417079 -0.6277109 0.3217141 0.41607568 -0.078966156 0.2770187 0.20910719 0.014298971 0.07911558 0.49665734 0.3863666 -0.21815328 0.06278325 -0.53555226 -0.4304586 0.37361962 0.09669539 0.45346358 0.09245254 0.35515946 0.15457535 0.25531033 0.03326517
5e863ad46db6564e8a1b5a113a5b6b38 -0.19060552 0.5200707 -0.7293179 -0.5417522 0.65683275 0.58643734 -0.073457226 -0.5473385 -0.3426443 0.12934507 0.035436798 -0.4802397 -0.5088092 0.51288533 0.46565628 -0.022138333 -0.35000917 -0.30979952 -0.10515079 0.4559337 -0.25299063 -0.58720064 -0.43745932 -0.3348339 0.49136397 0.22488824 0.40725347 -0.3120147 -0.35749987 -0.8696304 -0.9658529 0.33306 -0.051684856 0.21900547 0.124988854 -0.75544345 0.27496654 -0.08125635 -0.17373948 -0.02578968 -0.22606687 -0.13156621 -0.006391225 -0.16307738 0.3314418 -0.06780105 -0.25823602 0.53419465 -0.2534642 -0.06754026 -0.19913536 -0.050866727 0.07481433 0.6041134 0.120213486 -0.15882286 0.10233277 -0.12467929 0.40368885 -0.06382705 -0.19141218 0.30111852 0.4132803 0.39130655
56c848fe016fd15a2556106d1124c142 0.3411309 -0.4987137 0.35142732 -0.9923011 0.21767029 -0.8109687 0.1355715 -0.48047942 -0.2541219 -0.15312824 -0.4695947 -0.60708785 -0.15867947 0.055105716 -0.18202007 -0.2644068 -0.5003687 -0.089518584 0.42983615 0.266296 -0.49376693 0.3434824 -0.065661475 0.624269 0.3241084 0.5793057 -0.24417466 -0.1018725 0.873821 -0.2892283 -0.5138065 0.26559344 -0.49768192 -0.28140262 0.007280394 -0.061249804 0.36296463 -0.39596355 -0.22312127 0.12632339 -0.17487755 -0.2778778 -0.36819568 -0.29909915 0.33269614 0.5456843 0.26554298 0.24599616 -0.07594427 0.4408163 0.49940485 -0.34436294 -0.06773197 0.46649703 -0.140483 0.5675224 0.18934147 -0.099076554 -0.05274393 -0.082162 -0.06518843 -0.54351586 0.84061164 -0.29438478
4fbe4fab3b81b30905a0fcc5302295c4 0.05344423 -0.1712861 -0.4679648 0.32263383 0.60694456 -0.18530941 -0.24716675 -0.3196051 0.17885077 0.2752442 0.106095366 -0.302847 0.22278759 0.3458977 0.6256941 0.22735782 0.38597152 -0.321431 0.15895405 -0.28900653 0.46420816 -0.80415475 0.0098269805 0.19839862 0.40780273 0.83469695 0.2918853 -0.43540192 -0.42685086 -0.6025288 -0.10262543 0.05291861 -0.12686118 -0.25612733 -0.60342044 -1.0235488 0.16763896 -0.2804247 -0.21270332 -0.4715573 -0.39519134 -0.17585333 -0.005271749 0.110072315 0.6886416 0.33958423 -0.050139703 -0.17287534 -0.094854884 0.056852352 0.13995631 -0.096119046 -0.3706665 -0.10844395 0.30627295 -0.32485324 0.8440148 0.19741416 0.5889045 -0.07893086 0.27139407 0.072939865 1.0670828 0.17435381
c449f1c3fe839f022f697118ca16d0b4 0.6010863 0.06723716 -0.51940036 -0.25648358 0.12920952 -0.26061472 -0.037742864 0.026733054 0.50745267 -0.0062795067 -0.07667724 -0.18989956 -0.12875867 0.64961886 -0.0939703 -0.49460107 -0.6899131 0.11950538 0.6465946 0.25782895 -0.36885178 -0.6161815 0.056230523 0.29089302 0.28506038 1.0643885 0.24509409 -0.04345073 -0.46751863 0.27505153 -0.33987582 -0.32546163 -0.1657151 0.041352194 0.028401863 -0.7899011 0.39361295 -0.4878611 0.0108359475 -0.020159567 -0.4104789 0.36184305 -0.18201952 0.43014255 0.47435734 -0.1452621 -0.767264 -0.69406015 0.32766733 0.24111693 -0.06502914 -0.27400595 -0.7235128 0.08587423 -0.08838197 0.033235442 0.3653989 -0.22912613 0.01650544 -0.66628975 0.10280375 0.13061644 0.53848886 -0.24819139
fd666fa92cd2e4f2afc62008aef88df2 0.50956774 -0.47004032 -0.39884433 -0.32115924 0.22982813 0.2397097 -0.574062 0.08078707 -0.045971688 0.8131475 0.08638529 -0.2961277 0.282461 -0.3477613 -0.019375162 0.07270209 0.34036434 0.10314181 0.65062636 -0.10793799 -0.5611131 -0.1643453 -0.08337645 0.07689981 0.06110392 0.029091192 -0.32842764 -0.35522622 -0.16327491 0.20705345 -0.8552311 0.3765554 -0.5469114 -0.022384098 0.42707342 -0.93960965 0.5428431 -0.24580559 -0.4567147 -0.17100324 0.2254364 0.055380385 -0.18429525 0.43654466 0.23974794 -0.23820302 -0.0964493 0.27658352 0.74731326 -0.47347674 -0.4922496 0.12067029 0.18504284 0.08836473 0.13654496 0.14331627 0.9270756 0.13404407 0.9214555 -0.076681584 0.412129 -0.30656528 0.63168937 0.25131756
75abb631237a97a8a18580345e719639 -0.18868878 -0.015134156 0.10159694 -0.23305432 0.71949524 -0.5447015 0.12962808 0.2984133 0.49025282 0.40065095 -0.43411762 -0.82602865 -0.17090523 -0.28689948 0.85774577 -0.7176327 -0.07285272 -0.19962439 -0.3870761 0.38118118 -0.43270928 -0.5389816 -0.28116632 0.52406335 0.06332542 0.8886007 0.2758034 -0.39197743 0.09649282 -0.63406754 -0.12455338 0.4149601 0.34254313 0.2770745 -0.23078182 -0.5852336 0.57345927 -0.023274817 0.14223148 -0.38919157 0.45572752 -0.08842454 0.023109168 0.30965334 0.5174924 -0.033975773 0.28123847 0.06351142 -0.018229272 0.5082991 0.6601025 0.2544654 -0.12436877 0.099893786 0.15630925 0.45684034 -0.63340956 0.24439873 -0.3165443 -0.4397329 -0.39032242 -0.19591068 0.10385746 0.040200207
4652fe2ecad5e7846487abf263e422ff 1.1015264 0.23007996 -0.2963772 -0.518049 0.042424873 -0.34661576 0.65051603 -0.5621775 0.60128736 0.23761185 -0.389347 -0.14653069 0.006500793 -0.3421086 0.31611753 -0.3412257 -0.46769497 -0.5679013 -0.27242234 0.1798405 -0.14640488 -0.6369296 -0.09195795 0.0024011505 -0.2840256 0.5859195 0.49651775 0.43322664 -0.2700649 0.10787697 -0.0646311 0.3291461 0.33372757 0.574794 0.06580348 0.13055559 -0.16683067 -0.7073459 -0.049836412 0.027567824 -0.0420345 -0.13849366 -0.06022073 -0.758498 0.27998388 -0.48804522 0.5535084 0.15661722 -0.21819623 0.05286096 0.26451376 0.07892218 -0.9226118 0.46834642 -0.19708435 0.19618945 0.23967153 -0.100274645 0.13079499 -0.45202497 0.4514483 -0.38748676 -0.18061136 -0.21590835
22c33331b980fbbe836f87024ffc9def -0.20392862 0.07293066 0.027693579 -0.33689055 -0.11882957 -0.056723468 0.17995857 0.15861504 -0.44765696 0.13615374 0.12573637 -0.9662497 -0.4152241 -0.7326382 -0.21972804 0.09623042 0.6235168 -0.0195174 -0.44274858 -0.21503414 -0.0017303715 -0.5584622 0.061187387 -0.12378546 0.5547871 0.92776895 -0.042702734 -0.21259186 -0.49552152 -0.09845961 -0.28173825 -0.34772974 -0.08526625 0.59818894 -0.20572013 -0.13593525 0.6436208 -0.3868299 -0.18459743 -0.29160514 -0.7137096 -0.168982 0.24417575 -0.26135102 0.8604267 -0.26803082 0.26977238 -0.66859865 -0.027131608 -0.03838991 0.071570665 -0.22906427 -0.47736332 0.1521436 0.39023226 0.14345184 0.5443425 -0.30608532 0.4692438 0.2850014 0.15782055 0.1959989 0.017467085 -0.11241407
dfafdde9d7fd28da1d608a5208cedf55 0.21347307 -0.18826045 -0.06410779 -0.45971176 0.7484737 -0.28719804 0.23422226 -0.40298864 0.6510456 -0.5062681 -0.56324065 -0.51231813 0.51154584 -0.3221171 0.1331013 0.35913864 -0.38058355 -0.3218753 -0.12994121 0.29469648 -0.009480326 -0.7160807 0.4128238 0.044339433 0.41706836 -0.10791149 0.058894493 -0.14057972 -0.4823893 -0.24723443 -0.0800959 -0.0316231 -0.14289373 0.024187554 -0.5933156 -0.3228491 0.21909352 -0.59122545 -0.16451144 -0.2086399 -0.7156073 -0.6283491 -0.32970482 -0.3679407 0.059642695 -0.3352348 0.26502645 0.52608263 -0.20896953 0.03777934 0.38190192 0.13300939 0.52990687 0.061524957 -0.28306526 0.24786013 0.006271608 -0.4763172 0.75391483 0.34499714 0.3057386 -0.39226198 0.77049893 0.13702194
a36cb856dc9e7b12e74bc07e8d1a5cef -0.06290888 0.04643239 -0.057163164 -0.60421115 -0.22252816 -0.33804077 -0.0030913616 -0.6266319 -0.04595951 -0.08005462 -0.39981022 -0.95362186 0.17190954 0.30136582 -0.26835516 0.2899485 -0.040532373 0.42190963 0.167579 0.11300939 0.119721636 -0.5685659 0.12508252 0.14269473 0.07866747 0.74581105 0.03908348 0.3156136 0.28670892 -0.30282474 -0.5753779 0.018394662 -0.2344222 0.205333 -0.5896453 -0.56439185 -0.15815043 -0.7081597 -0.55698025 0.04572575 -0.035506424 0.5330751 -0.36878824 0.1725989 0.4989299 0.012781089 -0.100237764 0.24514617 0.3757048 -0.16117702 -0.21667019 -0.04857639 -0.2905601 0.029093845 -1.0970455 0.24883255 0.16038522 0.09909036 -0.045641262 -0.4980208 0.51225466 0.3235372 0.2252476 0.10906727
6d1e94686031621cc7655e9a9f0a277a 0.47372112 0.05798619 0.12324944 -0.44749314 0.13625456 0.25789118 -0.3973337 -0.35376212 -0.17963438 1.0418704 -0.045614395 -0.07183296 0.00500195 0.058986 -0.15020502 -0.050022595 -0.49200675 -0.44600803 0.23238556 -0.4212253 -0.1983682 -0.5530662 -0.42269972 -0.09769325 0.02456181 0.14574023 -0.62879217 0.6390375 -0.2603229 0.3588733 -0.86928046 0.053477347 0.12981065 0.0348766 -0.4480824 -0.45150685 0.118641675 -0.23463373 0.7223929 -0.6484193 -0.4592791 0.23560764 -1.0186406 -0.14948183 0.24471702 -0.3302416 0.09123251 -0.76730096 -0.17803471 -0.03649964 0.33640194 -0.21439753 -0.57133365 0.3688379 0.26104298 0.7745052 -0.019445186 -0.0017647975 0.32042733 0.19317031 0.23982486 -0.26214817 -0.13737091 0.21721855
de2f2ae4e70c71c1e2e210d9f2bb17ec 0.4001016 0.438394 0.16394149 -0.034199435 0.8546963 -0.21689098 -0.53180134 -0.21797112 0.003231772 0.33506826 -0.39558452 -0.32566187 -0.25653297 0.4726851 0.36553508 0.40648824 -0.517793 0.21937563 -0.3118518 0.090113804 -0.5655114 0.11075297 -0.14321989 -0.02708252 0.70782095 0.74152374 -0.06048184 0.073557764 0.12990576 0.09918875 -0.7964402 -0.09458607 0.25228328 0.28128815 -0.19361377 -0.46985775 -0.40577245 0.21045041 0.25862068 0.11134256 0.28295773 -0.28472868 -0.7788179 -0.05828498 0.57715267 -0.09015353 -0.10711716 -0.13099292 0.016923686 -0.023168067 0.17112105 0.3085124 -0.44269532 -0.34804958 0.32573438 0.5197915 0.4867478 0.70618385 0.17244434 -0.1162021 0.088743374 -0.02860029 0.6502577 0.17340106
4bb9360c3fcf3638056351aaa0ace675 0.07762529 0.10398595 -0.0014116284 -0.0048493925 0.1626482 -0.6669853 0.115790606 0.13037808 0.503667 0.7170903 -0.434517 -0.5051097 0.29370895 -0.32877877 0.29471785 -0.27203262 -0.5422807 -0.30270034 0.3404257 -0.3698315 0.039879046 -0.30108142 -0.0015114578 -0.12103694 0.4938966 0.4223106 -0.372228 0.6447447 0.11310508 -0.18900134 -0.3801723 -0.0662413 0.50703216 -0.2182042 -0.10919643 -0.2591516 0.79111207 0.22202548 -0.13308203 -0.28691658 0.1921849 0.929129 -0.67829597 0.11597236 -0.059980467 -0.67001027 -0.42717355 -0.14160822 0.71770227 0.3792269 0.66855913 0.12320556 -0.61471826 0.19520216 0.26833558 0.16731317 0.579829 0.11569882 0.36188436 0.11191005 0.2939668 0.15789013 -0.37540388 -0.11432337
4b6e32a2dfa57fee0fc09e8f7cbe6ed7 0.81348 -0.1496684 -0.37018713 0.18430212 0.39811718 -0.04026157 0.26520476 -0.61168885 -0.01879367 -0.012378871 -0.31347546 -0.6052018 0.5615949 0.21988091 0.23683499 -0.09923635 -0.33218068 0.3521088 -0.10813775 0.30394894 -0.06478078 -0.6541289 -0.1905461 0.34911388 0.5700659 -0.24249071 0.105549395 0.18786277 -0.00012347892 0.06286379 -0.6737914 -0.4143392 -0.43075898 0.008339216 -0.762904 -0.15168932 0.4425903 -0.10584438 -0.24470441 -0.25747642 -0.22739908 0.08061367 -0.5403268 -1.0593812 0.35086027 0.050060302 -0.68734777 -0.2692985 -0.053279374 0.66472006 0.24704829 -0.42696103 0.06553872 -0.5234357 -0.0015195524 -0.1990509 -0.26540425 0.2621521 0.20266908 -0.039328523 0.6331799 -0.61751235 0.5684964 0.3512173
393e3f23941f6b9d22eec60931a3af58 0.082366966 0.47981623 0.6345164 -0.51014566 0.2941711 0.023484237 -0.2073982 -0.039526552 -0.21050248 0.40328446 -0.62766993 -0.9004944 -0.27188927 0.23313053 0.18597664 -0.27569827 -0.30854166 -0.8146996 -0.35618743 0.056292485 -0.53108 0.23191606 0.18147899 -0.16009082 0.74197924 0.2011241 0.26345724 0.40364447 0.6443948 -0.9730125 -0.19581018 0.6386385 0.2967337 -0.018516568 -0.5769334 -0.02369979 -0.110226534 -0.35216704 -0.12796399 -0.24812518 0.13386814 -0.034950998 -0.25354242 0.26150626 -0.037186857 -0.3021374 -0.31666207 0.27596527 -0.08137239 0.17292592 0.61429095 0.3886731 -0.5827914 -0.101034835 -0.13282305 -0.26342815 0.4218721 0.42744392 0.5447159 0.073124856 0.37563327 -0.3036922 0.06360436 0.16361783
94766a95f2056004a0a5656e7626dd25 0.0611889 -0.4769407 -0.0867321 -0.6985408 -0.03346791 -0.41653225 0.18173888 -0.9065279 0.09512973 0.7926999 -0.29257107 -0.46247667 0.21573418 -0.4815659 0.20813215 -0.92821777 -0.16135632 0.028733362 0.26248124 0.36364514 -0.4839028 0.27818903 -1.0489963 0.10242606 -0.20601402 0.32520095 -0.09658193 -0.07881432 -0.14033616 -0.48292935 -0.25149176 0.022695128 0.08124356 -0.29747692 -0.23032987 -0.29272142 0.23711443 -1.2773712 0.103981756 0.1598278 0.16435462 0.082816415 -0.27152675 -0.64039177 0.15007886 0.2564126 0.07887813 -0.18063119 0.08988055 -0.26507345 -0.27278838 -0.3778047 0.020498453 -0.017370282 0.13767739 0.19151087 0.47299457 0.52887696 0.28555065 -0.100217514 -0.08510314 -0.604276 0.6561884 0.23199095
9b656e0e0469da9515a1c9797b8c6fb7 0.46339178 0.052484136 0.09030081 -0.61526877 1.0054855 0.2710963 0.36873573 -0.48580137 0.022245899 0.31320965 -0.08025658 -0.6577582 -0.043312807 0.36707953 0.45308542 0.3516153 -0.401088 -0.16731523 0.8462489 0.39964968 -0.4027535 -0.40749907 -0.058819875 -0.017905774 0.5473569 0.6483046 -0.19156967 -0.41492832 -0.47623318 0.054909747 -0.504315 0.71290195 -0.078325965 0.4770476 -0.72289467 0.12010016 0.17051274 -0.12539804 -0.16340847 0.09603713 -0.08780085 0.38678995 0.28845328 -0.8195166 -0.0052925 -0.20282891 0.00019996164 -0.27768597 -0.04576563 -0.5079919 -0.10550649 -0.051940843 0.27853596 0.055451766 -0.42544398 0.31113136 0.5010781 0.07142838 0.68875134 -0.0048119994 -0.20335072 0.41740164 0.045346886 0.6581568
f88a684a07de07d96efd343565964a3d -0.08834409 -0.09164456 0.27848315 -0.0058488604 0.36955968 -0.88672024 0.24483596 -0.49732655 0.13018036 -0.6624865 -0.2752702 -0.41591072 0.37176132 -0.25714654 0.43293777 0.4318738 -0.24203831 -0.0666623 0.21688916 -0.08584027 -0.08711349 -0.4454503 0.08218344 0.03900528 0.07545017 0.7901554 -0.14903486 -0.5211908 -0.18747818 -0.41676798 -0.64387935 -0.084398754 -0.42874512 0.3747337 -0.5069606 -0.19921619 0.4093895 -0.41664767 0.36192012 -0.13698056 0.13703747 1.01757 -0.5357693 -0.22659363 0.9926921 -0.11838713 0.2667187 -0.6239812 -0.2965881 -0.066622354 0.41172287 -0.056914058 0.030353315 0.40576476 -0.19998361 0.15364003 0.06790642 0.5578345 -0.025036087 0.4517524 0.16061859 -0.17797898 0.19128871 -0.4235521
15d523b365849d2d48b8d79195403af0 0.34171155 -0.1471015 0.34812027 0.024682416 0.52467704 -0.03833024 -0.41471502 -0.33661702 0.47423786 -0.081825614 -0.23339832 -1.2666341 0.29825562 -0.37516785 -0.3614465 -0.046931606 -0.10387425 -0.19190197 0.42054686 0.11338299 -0.80954736 -0.41002026 0.20113349 0.8120223 0.14569005 0.7022241 -0.11680067 0.034120876 -0.38753545 0.14095905 -0.8822089 -0.15157104 -0.22649461 -0.06385689 -0.20433855 -0.6046199 0.31338713 -0.17330964 -0.55819803 -0.21846205 -0.8391153 0.031668097 0.22074907 -0.66914374 -0.24135026 0.10992081 0.23564424 -0.33226982 -0.10388877 0.34234366 0.22740369 -0.27475002 0.1116049 -0.18728296 -0.045249127 0.43799293 -0.22224471 -0.23443133 0.040852297 0.06246833 0.5196601 0.19500902 0.15417646 0.007881148
